%YAML:1.0
my_svm: !!opencv-ml-svm
   svm_type: C_SVC
   kernel: { type:RBF, gamma:5. }
   C: 1.
   term_criteria: { epsilon:1.1920928955078125e-007, iterations:1000 }
   var_all: 6
   var_count: 6
   class_count: 3
   class_labels: !!opencv-matrix
      rows: 1
      cols: 3
      dt: i
      data: [ 1, 2, 3 ]
   class_weights: !!opencv-matrix
      rows: 3
      cols: 1
      dt: d
      data: [ 1., 2., 1. ]
   sv_total: 2521
   support_vectors:
      - [ -1.50293279e+000, 6.03148341e-001, 7.93807685e-001,
          1.95741606e+000, 2.39177108e-001, 1.24833202e+000 ]
      - [ -1.11272132e+000, -2.90982425e-001, -8.93816590e-001,
          -7.55382180e-001, 1.71183991e+000, 1.10599780e+000 ]
      - [ -2.68948711e-002, -8.46363962e-001, -3.30162436e-001,
          -7.55382180e-001, 5.37948370e-001, -2.20651329e-001 ]
      - [ -3.50253642e-001, -1.46417308e+000, -1.05709708e+000,
          -7.55382180e-001, 1.56793487e+000, 7.75691122e-002 ]
      - [ -1.28074026e+000, 4.22313333e-001, 1.79543638e+000,
          1.99554527e+000, -6.38948262e-001, 3.54785830e-001 ]
      - [ -2.03630066e+000, 2.52169633e+000, -1.02156177e-001,
          1.99248707e+000, 1.67082405e+000, 1.42700577e+000 ]
      - [ -7.87315905e-001, 1.11291021e-001, -4.86982688e-002,
          5.26337445e-001, 8.42332959e-001, 2.88460791e-001 ]
      - [ 4.22932766e-002, -6.73899770e-001, -8.77207398e-001,
          -7.55382180e-001, 1.01247501e+000, -1.03822924e-001 ]
      - [ -1.56183541e-001, 2.22226232e-002, 5.38581133e-001,
          4.88208205e-001, -9.65471864e-002, -5.94404221e-001 ]
      - [ -7.15453148e-001, 1.34619161e-001, 3.24801397e+000,
          1.22936881e+000, -1.49727809e+000, -2.45172071e+000 ]
      - [ -1.19357169e+000, 1.01402891e+000, 1.48260617e+000,
          1.91928685e+000, -1.91436112e-001, -6.22762702e-002 ]
      - [ 2.25356638e-001, -7.28831410e-001, 1.10002749e-001,
          -7.55382180e-001, -6.34780169e-001, 5.73348820e-001 ]
      - [ -1.94645202e+000, 3.25730300e+000, 1.62686658e+000,
          1.32945132e+000, 1.65879890e-001, 5.90405583e-001 ]
      - [ -7.00734735e-001, 1.11136591e+000, 1.18639135e+000,
          1.10253680e+000, -8.34872007e-001, 7.46089101e-001 ]
      - [ -8.13463688e-001, -2.16801095e+000, -4.41287947e+000,
          -7.55382180e-001, 4.73029900e+000, 2.13075900e+000 ]
      - [ -1.34032965e+000, -4.59082067e-001, 7.91331947e-001,
          2.05748156e-001, 3.86691421e-001, 6.04459643e-001 ]
      - [ -1.47883725e+000, -1.01915181e+000, -1.35302293e+000,
          -7.55382180e-001, 2.21643281e+000, 1.85286915e+000 ]
      - [ -1.49058342e+000, 3.73804951e+000, 4.00257874e+000,
          1.95741606e+000, -1.94472134e+000, -1.29226232e+000 ]
      - [ -2.29960382e-001, -8.25844765e-001, 7.50512034e-002,
          -7.55382180e-001, -7.79438466e-002, 5.98492205e-001 ]
      - [ -7.46408254e-002, -9.38644886e-001, -1.09862256e+000,
          -7.55382180e-001, 1.30104029e+000, 8.47974569e-002 ]
      - [ -6.70144379e-001, -7.65449822e-001, 2.61474010e-002,
          -7.55382180e-001, 4.51395899e-001, 6.48179114e-001 ]
      - [ -9.46670890e-001, 6.12833321e-001, 2.26761073e-001,
          1.36687350e+000, 7.66868293e-001, 1.92919448e-001 ]
      - [ -2.67000552e-002, -1.10686290e+000, -9.16156471e-001,
          -7.55382180e-001, 1.21323729e+000, -2.64961839e-001 ]
      - [ -1.21705961e+000, -2.62997299e-001, 1.39433014e+000,
          1.03061795e+000, -2.95131117e-001, 3.89874995e-001 ]
      - [ -4.60434370e-002, 4.68808919e-001, 3.11876923e-001,
          2.94465899e-001, -5.04113793e-001, 4.94839847e-001 ]
      - [ 1.96772292e-001, -7.75928259e-001, -9.06531334e-001,
          -7.55382180e-001, 8.32274616e-001, -3.07661537e-002 ]
      - [ 1.46032721e-001, 1.06133235e+000, 2.88032746e+000,
          6.92095280e-001, -1.94082618e+000, -2.95039320e+000 ]
      - [ -1.97460496e+000, 3.36645842e+000, 5.06366551e-001,
          1.88115764e+000, 8.05825472e-001, 1.73261547e+000 ]
      - [ 2.49627426e-001, -9.77636099e-001, -1.07986319e+000,
          -7.55382180e-001, 1.09218836e+000, -2.91865468e-001 ]
      - [ -1.49810803e+000, 8.96307766e-001, 1.25518477e+000,
          8.76329362e-001, -2.30310127e-001, 1.18588650e+000 ]
      - [ -6.07638657e-001, -1.04915059e+000, -8.57024610e-001,
          -7.55382180e-001, 1.26029646e+000, 8.34013820e-001 ]
      - [ -1.84355783e+000, 6.37238622e-001, 1.37547934e+000,
          2.07990861e+000, 4.55582254e-002, 1.13368094e+000 ]
      - [ -1.20706236e+000, 2.71917677e+000, 9.17538643e-001,
          1.98053312e+000, -1.17145404e-001, 1.04377615e+000 ]
      - [ -2.88876563e-001, -1.13722706e+000, -1.50169265e+000,
          -7.55382180e-001, 1.51735926e+000, 1.04777908e+000 ]
      - [ -1.38148999e+000, 8.69031716e-003, -1.00955531e-001,
          7.37131894e-001, 1.02317190e+000, 1.34285331e+000 ]
      - [ -1.89985609e+000, 2.78851581e+000, 3.91976416e-001,
          1.78563142e+000, 1.11036861e+000, 1.21678722e+000 ]
      - [ -5.89531064e-001, -1.14541459e+000, -2.47606114e-001,
          -7.55382180e-001, 7.22941101e-001, 5.24177849e-001 ]
      - [ -8.49258065e-001, -1.19842052e+000, -2.68957883e-001,
          -7.55382180e-001, 8.31656635e-001, 9.34655964e-001 ]
      - [ -1.77582228e+000, -4.32921499e-001, -4.07077730e-001,
          -7.55382180e-001, 1.65269601e+000, 1.56978095e+000 ]
      - [ -6.89865232e-001, 2.37143725e-001, 1.30557644e+000,
          5.68405449e-001, -9.12688971e-001, 6.13624990e-001 ]
      - [ -1.16797887e-001, 1.79423958e-001, -1.78897440e-001,
          2.94465899e-001, 4.72100705e-001, -2.17718512e-001 ]
      - [ 1.52392238e-001, -8.60790491e-001, -4.31345910e-001,
          -7.55382180e-001, 1.10169001e-001, 4.65774357e-001 ]
      - [ -1.87455332e+000, -2.97508806e-001, -3.16729367e-001,
          -7.55382180e-001, 1.27031517e+000, 2.33629942e+000 ]
      - [ -1.82513714e+000, 1.75657916e+000, -2.74929404e-001,
          1.91118205e+000, 1.73453093e+000, 1.23107290e+000 ]
      - [ -1.32357109e+000, -1.06694400e+000, -1.31956232e+000,
          -7.55382180e-001, 2.11862874e+000, 1.65706038e+000 ]
      - [ -2.01542631e-001, 1.07048428e+000, 3.55404401e+000,
          1.84687769e+000, -2.14448166e+000, -3.15070152e+000 ]
      - [ -4.89623189e-001, 7.89185941e-001, 2.47210050e+000,
          1.14194739e+000, -1.20779908e+000, -1.87585914e+000 ]
      - [ -3.41740102e-001, -7.81123400e-001, -1.16836452e+000,
          -7.55382180e-001, 1.50121653e+000, 4.45712894e-001 ]
      - [ -2.49372154e-001, -1.15520068e-001, -3.95978630e-001,
          -7.55382180e-001, 6.46353126e-001, 2.31528744e-001 ]
      - [ -1.52347708e+000, 2.00386572e+000, -1.23858742e-001,
          2.05679154e+000, 1.44848680e+000, 8.47219288e-001 ]
      - [ -1.90843093e+000, 4.88095188e+000, 2.55319381e+000,
          1.50123596e+000, -1.29596341e+000, 1.44884062e+000 ]
      - [ -1.53245616e+000, 2.22497702e+000, 1.44181326e-001,
          1.84993589e+000, 1.36171138e+000, 4.66963619e-001 ]
      - [ 5.66368029e-002, -1.18209457e+000, -1.25268424e+000,
          -7.55382180e-001, 1.37403727e+000, -1.73941124e-002 ]
      - [ -2.04697418e+000, -4.54944186e-002, 1.20359993e+000,
          -7.55382180e-001, 9.64893758e-001, 1.16809309e-001 ]
      - [ -1.66550457e+000, 1.85681653e+000, 1.43367219e+000,
          2.20240092e+000, -4.57809627e-001, 1.62254488e+000 ]
      - [ -1.61228269e-001, -7.32780755e-001, -7.30314612e-001,
          -7.55382180e-001, 9.39254582e-001, 1.87010691e-001 ]
      - [ -1.84276700e-001, -5.18359184e-001, -7.01905847e-001,
          -7.55382180e-001, 1.04489565e+000, -4.05375771e-002 ]
      - [ -1.98954380e+000, 2.39299321e+000, 3.41641605e-001,
          2.16427183e+000, 1.45404911e+000, 8.31574261e-001 ]
      - [ -8.70113194e-001, -5.04944921e-001, 5.43249130e-001,
          -3.86236489e-001, -1.47437051e-001, 1.16725051e+000 ]
      - [ -3.59237552e-001, -3.48147303e-001, -2.55152900e-002,
          -8.60301778e-002, 4.68450218e-001, 1.28682600e-002 ]
      - [ 4.70524341e-001, -1.37443638e+000, -1.23911464e+000,
          -7.55382180e-001, 1.01467693e+000, -2.89874732e-001 ]
      - [ -1.83030951e+000, 2.16572809e+000, 8.42875063e-001,
          1.34495389e+000, 9.50925827e-001, 4.37687784e-001 ]
      - [ -1.87751949e+000, 2.30604935e+000, -1.13560915e-001,
          1.83492362e+000, 1.36811686e+000, 1.72287071e+000 ]
      - [ -2.56767482e-001, -1.29241705e+000, -1.29006398e+000,
          -7.55382180e-001, 1.59959710e+000, 3.27535272e-001 ]
      - [ -1.19224048e+000, -4.53055769e-001, -4.65817481e-001,
          -7.55382180e-001, 1.41326797e+000, 9.45309341e-001 ]
      - [ -7.16277957e-001, -7.87337959e-001, -2.57291389e-003,
          -7.55382180e-001, 4.08845842e-001, 9.02535975e-001 ]
      - [ -1.68016469e+000, 2.80435413e-001, 5.10776281e-001,
          -2.65752017e-001, 8.59584332e-001, 9.99421000e-001 ]
      - [ -8.60515356e-001, -3.05855691e-001, 8.80600214e-001,
          -7.55382180e-001, 2.18248412e-001, -3.34935695e-001 ]
      - [ -1.57997358e+000, -6.83935702e-001, 1.06356271e-001,
          -7.55382180e-001, 1.01542795e+000, 1.33654392e+000 ]
      - [ -5.71038425e-001, -4.18324679e-001, -2.93089956e-001,
          -7.55382180e-001, 1.00679088e+000, 7.43100420e-003 ]
      - [ -1.84058809e+000, 5.48103905e+000, 2.76999617e+000,
          1.06006801e+000, -1.50351834e+000, 1.25359404e+000 ]
      - [ -3.63332868e-001, 1.01186538e+000, 1.14657021e+000,
          1.45123672e+000, -7.64140487e-001, -1.07965358e-001 ]
      - [ -1.64771104e+000, 1.16993570e+000, 1.18319774e+000,
          1.68120944e+000, -1.09665848e-001, 1.42517519e+000 ]
      - [ -1.24769199e+000, -1.44026053e+000, -1.39996529e+000,
          -7.55382180e-001, 2.24454188e+000, 1.42156410e+000 ]
      - [ -6.07352674e-001, 1.63024795e+000, 1.67386162e+000,
          1.74750221e+000, -1.29897296e+000, 3.81985158e-001 ]
      - [ -4.78315204e-001, -3.96431863e-001, 8.71380568e-001,
          3.28240603e-001, -2.45610207e-001, -2.70121038e-001 ]
      - [ -5.45082353e-002, -8.59118998e-001, -7.75449991e-001,
          -7.55382180e-001, 9.92693841e-001, -6.89501837e-002 ]
      - [ -1.66448712e+000, 2.47710204e+000, 7.65356421e-001,
          2.20240092e+000, 8.21911216e-001, 5.00991702e-001 ]
      - [ -1.12454152e+000, 6.44469857e-001, -4.33534890e-001,
          3.78829151e-001, 1.33245599e+000, 8.91007483e-001 ]
      - [ -1.76433039e+000, 4.65728569e+000, 4.35882187e+000,
          1.14571261e+000, -1.98782408e+000, -1.31106985e+000 ]
      - [ -1.04889727e+000, 2.93739533e+000, 4.85190535e+000,
          2.22551799e+000, -2.58599496e+000, -2.93878436e+000 ]
      - [ -3.11848342e-001, -4.67166603e-001, 1.81668207e-001,
          -2.04505786e-001, 2.59493917e-001, -1.40080377e-001 ]
      - [ -2.08498979e+000, 4.07651043e+000, 5.70326805e-001,
          1.78563142e+000, 1.07335067e+000, 1.30124533e+000 ]
      - [ -1.14064467e+000, 8.04076850e-001, 6.64527416e-001,
          1.57571757e+000, -3.54182087e-002, 1.28156579e+000 ]
      - [ -2.34118029e-001, 1.77614406e-001, 2.27252260e-001,
          -8.60301778e-002, -2.47679144e-001, 6.09918118e-001 ]
      - [ -8.06441829e-002, 2.55815953e-001, 1.00711644e+000,
          1.82631150e-001, -1.06153488e+000, 1.31436437e-001 ]
      - [ -5.93932986e-001, -9.21926379e-001, 2.78744411e+000,
          -3.86236489e-001, -1.21645463e+000, -2.30199933e+000 ]
      - [ -1.91501474e+000, 6.10549450e-001, 2.93155044e-001,
          6.73813224e-001, 1.18268859e+000, 1.31287050e+000 ]
      - [ -1.70143282e+000, -4.23381627e-001, 4.92057145e-001,
          -7.55382180e-001, 1.18689024e+000, 4.36102986e-001 ]
      - [ -1.91228867e+000, 4.32676363e+000, 4.30264759e+000,
          1.68931425e+000, -1.84461415e+000, -1.12754917e+000 ]
      - [ -1.77984345e+000, 4.65041208e+000, 2.36665106e+000,
          2.01432276e+000, -1.03290701e+000, 1.03859496e+000 ]
      - [ -1.98414862e+000, 3.45349026e+000, 4.22899537e-002,
          2.30988121e+000, 1.58893037e+000, 1.18016291e+000 ]
      - [ -1.94033122e+000, 3.16927552e+000, 8.16530526e-001,
          2.34801054e+000, 6.66713655e-001, 1.28650737e+000 ]
      - [ 5.98920807e-002, -1.02543902e+000, -1.09450328e+000,
          -7.55382180e-001, 1.19715405e+000, -2.51120701e-002 ]
      - [ -1.52007610e-001, -9.00189459e-001, 1.06481656e-001,
          -5.69888651e-001, 2.19856679e-001, -2.67822772e-001 ]
      - [ 2.72252440e-001, -8.70574951e-001, -9.02074039e-001,
          -7.55382180e-001, 9.13595319e-001, -3.90346378e-001 ]
      - [ -1.65812206e+000, 2.22984862e+000, -8.57530534e-002,
          1.32183683e+000, 1.33069968e+000, 1.28367829e+000 ]
      - [ -4.93517905e-001, -1.60145119e-001, -5.69888055e-001,
          -7.55382180e-001, 9.46916342e-001, 5.72044671e-001 ]
      - [ 3.81735325e-001, -1.12554693e+000, -1.30638015e+000,
          -7.55382180e-001, 1.10521555e+000, -1.06194973e-001 ]
      - [ -2.10875154e+000, 1.20059228e+000, 9.56765711e-001,
          4.47605789e-001, 2.69019932e-001, 2.12691116e+000 ]
      - [ -1.72946489e+000, 1.50178111e+000, 1.78000927e+000,
          1.32262790e+000, -2.16972098e-001, 5.52064180e-001 ]
      - [ -8.67058814e-001, -7.57240653e-001, -3.06010604e-001,
          -7.55382180e-001, 8.67482662e-001, 9.83437598e-001 ]
      - [ -1.24148834e+000, 1.36108708e+000, 1.06433809e+000,
          1.99248707e+000, -5.66321373e-001, 1.70107961e+000 ]
      - [ -1.21509504e+000, 1.09975383e-001, 1.11445582e+000,
          -7.55382180e-001, -2.93805569e-001, 9.88773644e-001 ]
      - [ -5.55964768e-001, 1.21368885e+000, 2.98055768e+000,
          1.61996317e+000, -1.44542432e+000, -2.36421251e+000 ]
      - [ -2.50116717e-002, -8.40147913e-001, -1.13251364e+000,
          -7.55382180e-001, 1.23011255e+000, 1.92919448e-001 ]
      - [ -2.25815701e+000, 1.18039215e+000, 1.10929835e+000,
          1.33684909e+000, 1.77925095e-001, 2.29686546e+000 ]
      - [ -9.38299745e-002, -5.93786776e-001, -4.83956873e-001,
          -8.60301778e-002, 7.65484095e-001, -1.76991805e-001 ]
      - [ 1.25640929e-001, -2.73103595e-001, 3.07676405e-001,
          7.22382544e-003, -2.23616228e-001, -4.90424752e-001 ]
      - [ -1.43855929e+000, 3.89745116e-001, 1.64518058e+000,
          1.42121232e+000, -1.18152216e-001, -3.96258244e-003 ]
      - [ -6.85276687e-001, -1.34207845e+000, -7.77272522e-001,
          -7.55382180e-001, 1.28464472e+000, 7.79790938e-001 ]
      - [ -4.72149462e-001, -3.29551607e-001, 9.00214612e-001,
          -4.47482705e-001, -5.37377417e-001, 2.44220436e-001 ]
      - [ -1.19815612e+000, 9.50295925e-001, 2.66166508e-001,
          1.85804069e+000, 5.82338989e-001, 1.03522062e+000 ]
      - [ -1.35546172e+000, 3.81003410e-001, -1.63962141e-001,
          -7.55382180e-001, 9.95436251e-001, 1.47810602e+000 ]
      - [ 4.19805944e-001, -1.05794144e+000, -1.13649833e+000,
          -7.55382180e-001, 1.00963736e+000, -3.97761673e-001 ]
      - [ 6.20367844e-003, -4.96716172e-001, 3.37993324e-001,
          -5.69888651e-001, -3.34306210e-002, -6.59692228e-001 ]
      - [ 1.02503550e+000, -5.35906255e-001, -7.44934738e-001,
          -7.55382180e-001, 1.58486471e-001, -1.06286192e+000 ]
      - [ -1.72653401e+000, 1.12982738e+000, 1.63021529e+000,
          1.73939741e+000, -1.33053318e-001, 6.96173966e-001 ]
      - [ -1.13276899e+000, 5.81915444e-003, 1.20780535e-001,
          -7.55382180e-001, 6.92737341e-001, 9.86330986e-001 ]
      - [ -9.96986687e-001, 5.68299830e-001, 1.07075536e+000,
          1.45798266e-001, 7.27317706e-002, -1.45153537e-001 ]
      - [ -8.67179155e-001, 1.31253564e+000, 7.06858158e-001,
          1.21435666e+000, 2.73655355e-001, -4.87600937e-002 ]
      - [ -8.17901373e-001, -7.27827132e-001, -1.81357756e-001,
          -5.69888651e-001, 7.91443884e-001, 7.52853394e-001 ]
      - [ -3.15818489e-001, -1.68263364e+000, -8.56675148e-001,
          -7.55382180e-001, 1.09840000e+000, 5.04645884e-001 ]
      - [ -1.80126214e+000, 5.60516119e-001, 9.64184880e-001,
          1.05373502e+000, 2.22222328e-001, 1.56003535e+000 ]
      - [ -8.79807293e-001, 1.04699051e+000, 1.41460609e+000,
          2.01866221e+000, -8.44339490e-001, 6.76837325e-001 ]
      - [ -1.24774170e+000, 6.27202868e-001, 1.55662239e+000,
          1.14699399e+000, -1.90284744e-001, -1.01307847e-001 ]
      - [ -1.08730125e+000, 1.30833581e-001, 1.80912837e-001,
          3.78829151e-001, 7.66379952e-001, 6.07631028e-001 ]
      - [ -4.29164141e-001, 3.73707637e-002, 2.51857471e+000,
          -7.55382180e-001, -1.13006723e+000, -2.29056883e+000 ]
      - [ -2.25050777e-001, 2.08795100e-001, 2.56772161e+000,
          3.04469556e-001, -1.35553420e+000, -2.46200752e+000 ]
      - [ -1.75926316e+000, 1.86235046e+000, 9.34266150e-001,
          1.95307648e+000, -9.61373001e-002, 2.16355181e+000 ]
      - [ -1.82350683e+000, 2.12717056e-001, -1.63641012e+000,
          6.71946883e-001, 2.61279917e+000, 2.35808492e+000 ]
      - [ -1.81617725e+000, 3.09915066e+000, 2.28456187e+000,
          2.49361992e+000, -1.19865513e+000, 1.61902869e+000 ]
      - [ -9.36721921e-001, -1.20776606e+000, -1.40893149e+000,
          -7.55382180e-001, 1.91633487e+000, 1.44530022e+000 ]
      - [ -1.34097409e+000, -1.92426813e+000, -9.33017433e-001,
          -5.69888651e-001, 1.74593580e+000, 1.60479474e+000 ]
      - [ -1.37512040e+000, 3.48809689e-001, 7.56559312e-001,
          3.70216928e-002, 6.22909904e-001, 2.84718722e-001 ]
      - [ -1.76229465e+000, 9.42114353e-001, 1.69529200e-001,
          1.66185760e+000, 1.14627135e+000, 1.32670689e+000 ]
      - [ -1.41056323e+000, -3.38473737e-001, 3.97860140e-001,
          -2.65752017e-001, 7.38562644e-001, 9.01793599e-001 ]
      - [ -1.89503527e+000, 7.81883240e-001, 8.52277219e-001,
          1.78868961e+000, 3.00367743e-001, 1.83876848e+000 ]
      - [ -6.52001560e-001, 3.93025309e-001, 7.04448044e-001,
          9.73220944e-001, -4.03475523e-001, 8.30230057e-001 ]
      - [ 3.38482231e-001, -9.32043374e-001, -1.05243599e+000,
          -7.55382180e-001, 1.04183006e+000, -4.64931369e-001 ]
      - [ -5.23374856e-001, 5.71958244e-001, 1.07160890e+000,
          1.57571757e+000, -6.96173549e-001, 3.04144174e-001 ]
      - [ -2.42407665e-001, 7.90353954e-001, 2.89527130e+000,
          6.06761813e-001, -1.68713832e+000, -2.48256254e+000 ]
      - [ -2.00542617e+000, 3.51596212e+000, -4.98255305e-002,
          2.53174901e+000, 1.59743249e+000, 1.39932883e+000 ]
      - [ -1.79324639e+000, 2.58652735e+000, 1.52911544e+000,
          1.45628333e+000, 2.57642537e-001, 2.82510638e-001 ]
      - [ -3.01229954e-001, -5.28377712e-001, -1.63050786e-001,
          -7.55382180e-001, 2.29351133e-001, 6.76705360e-001 ]
      - [ -8.66384685e-001, -4.02905017e-001, -3.26207429e-001,
          -7.55382180e-001, 6.26657009e-001, 1.51207554e+000 ]
      - [ -1.86401856e+000, 4.78790092e+000, 2.21502614e+000,
          1.72438526e+000, -1.07958472e+000, 1.63457775e+000 ]
      - [ -1.77552736e+000, 2.14499855e+000, 4.10360992e-001,
          2.43237376e+000, 1.07781625e+000, 9.81767893e-001 ]
      - [ -2.63089508e-001, -4.88742650e-001, 1.43766746e-001,
          -7.55382180e-001, -1.04028076e-001, 5.73795974e-001 ]
      - [ -4.96072054e-001, -2.70395041e-001, 9.00638342e-001,
          4.40075368e-001, -5.15972674e-001, 2.56276459e-001 ]
      - [ -1.49819040e+000, 2.85078430e+000, 2.10916328e+000,
          2.55486608e+000, -1.19182026e+000, 1.27383995e+000 ]
      - [ -2.06789923e+000, 1.70253921e+000, 9.29823577e-001,
          2.22551799e+000, 3.09473962e-001, 2.01899433e+000 ]
      - [ 2.84282267e-001, -7.48069584e-001, -1.17462385e+000,
          -7.55382180e-001, 1.17023194e+000, -3.15647900e-001 ]
      - [ -1.22660828e+000, 1.63132811e+000, 1.34659827e+000,
          2.04177928e+000, -6.39082134e-001, 1.20287633e+000 ]
      - [ 2.56698966e-001, -7.36870944e-001, -1.30733058e-001,
          -7.55382180e-001, -3.76482815e-001, 5.22436500e-001 ]
      - [ 1.36850446e-001, -3.98230731e-001, -3.30913037e-001,
          -7.55382180e-001, -1.15856528e-003, 5.00397205e-001 ]
      - [ -4.13041413e-001, 1.29108822e+000, 3.30653620e+000,
          2.14115477e+000, -1.80904961e+000, -2.72156072e+000 ]
      - [ -1.82982564e+000, 4.10450172e+000, 4.21087265e+000,
          2.40925670e+000, -1.77552843e+000, -1.26439130e+000 ]
      - [ -9.47255194e-001, 5.96056283e-001, 5.13928771e-001,
          7.22382544e-003, 2.04996452e-001, 6.95472777e-001 ]
      - [ -4.43058729e-001, -4.77671891e-001, 2.01866195e-001,
          -7.55382180e-001, -5.72362393e-002, 7.67294645e-001 ]
      - [ -1.44986939e+000, -1.04080632e-001, -9.58520353e-001,
          -7.55382180e-001, 1.81090331e+000, 1.75631630e+000 ]
      - [ -2.04633474e+000, -2.09811494e-001, 9.09461260e-001,
          1.27560282e+000, 2.15061903e-001, 2.20232344e+000 ]
      - [ 3.97275656e-001, -7.80880451e-001, -4.60043132e-001,
          -7.55382180e-001, 2.89467365e-001, -4.33221877e-001 ]
      - [ -5.43964267e-001, -1.03127742e+000, 2.46200308e-001,
          -7.55382180e-001, 5.98667085e-001, -4.31571037e-001 ]
      - [ -1.48205674e+000, 4.24684614e-001, 1.66603839e+000,
          -1.00468017e-001, -6.05531514e-001, 1.01872933e+000 ]
      - [ -6.91871464e-001, 7.01990008e-001, -3.12253565e-001,
          9.37701404e-001, 8.66356790e-001, 6.08745515e-001 ]
      - [ -8.41612279e-001, -1.98165715e+000, -2.38350940e+000,
          -7.55382180e-001, 3.36103606e+000, 4.75236833e-001 ]
      - [ -5.75789571e-001, -2.54040450e-001, 5.05518734e-001,
          -2.47839559e-002, -2.28069246e-001, 7.41696894e-001 ]
      - [ -1.26630187e+000, -1.12402427e+000, -1.31949639e+000,
          -7.55382180e-001, 2.08486247e+000, 1.60561895e+000 ]
      - [ -6.58968270e-001, 1.30148399e+000, 4.10445833e+000,
          1.41381454e+000, -2.19605851e+000, -3.08336449e+000 ]
      - [ -1.07359219e+000, 1.38217676e+000, 7.13859737e-001,
          1.93429911e+000, 2.34037295e-001, 4.84109223e-001 ]
      - [ 8.10357705e-002, -9.34770048e-001, -1.11508656e+000,
          -7.55382180e-001, 1.23050010e+000, -9.60834026e-002 ]
      - [ -1.57914281e+000, 1.43401241e+000, 6.33154988e-001,
          2.20240092e+000, 4.30573136e-001, 1.37471211e+000 ]
      - [ -5.45678258e-001, 7.59718001e-001, 4.80778456e-001,
          1.69741893e+000, -2.19637692e-001, 7.10135460e-001 ]
      - [ 1.19967842e+000, -6.82586193e-001, -5.44599235e-001,
          -7.55382180e-001, -2.45870743e-002, -1.62016451e+000 ]
      - [ -9.23582733e-001, 1.43444848e+000, 6.70377910e-001,
          1.55871701e+000, 2.32977688e-001, 2.42240712e-001 ]
      - [ -3.52381796e-001, -1.11835444e+000, -7.32593060e-001,
          -7.55382180e-001, 1.22174144e+000, 5.61659448e-002 ]
      - [ -2.01270223e-001, -1.42220926e+000, -1.71413743e+000,
          -7.55382180e-001, 1.52935410e+000, 1.30961156e+000 ]
      - [ -1.73468840e+000, 1.91453278e+000, 1.35603213e+000,
          7.77079701e-001, -6.75966814e-002, 1.16384077e+000 ]
      - [ -8.64529073e-001, 4.15599287e-001, 6.39740527e-001,
          2.94465899e-001, -3.32483351e-001, 1.31537247e+000 ]
      - [ -1.08599770e+000, 4.29708421e-001, 4.82401215e-002,
          1.66313899e+000, 6.97963715e-001, 1.03108764e+000 ]
      - [ -5.26648283e-001, -1.58011690e-001, 2.99386644e+000,
          -2.47839559e-002, -1.61713147e+000, -2.11939096e+000 ]
      - [ -4.92768824e-001, -1.14325516e-001, -1.86877728e-001,
          7.98378110e-001, 7.74207234e-001, 6.28249198e-002 ]
      - [ -6.05942070e-001, 1.01954423e-001, 9.96141374e-001,
          4.88208205e-001, -4.63725805e-001, 1.95412859e-001 ]
      - [ -1.27203059e+000, 1.88265145e+000, 3.25966144e+000,
          2.20240092e+000, -1.42155671e+000, -1.26276588e+000 ]
      - [ -3.50907166e-003, -5.98337233e-001, -8.21396351e-001,
          -7.55382180e-001, 9.10658538e-001, 8.53140354e-002 ]
      - [ -1.59154153e+000, 3.96028966e-001, 2.68794328e-001,
          8.99446368e-001, 6.28940940e-001, 1.78258538e+000 ]
      - [ -1.97383642e-001, -7.30150104e-001, -9.35219467e-001,
          -7.55382180e-001, 1.09418166e+000, 4.19890761e-001 ]
      - [ -1.44753015e+000, -8.34889889e-001, -1.36766553e+000,
          -7.55382180e-001, 2.19279003e+000, 1.86735785e+000 ]
      - [ -1.60657704e+000, 4.47882080e+000, 3.99023700e+000,
          2.28676414e+000, -1.81200707e+000, -1.25290525e+000 ]
      - [ -5.24773896e-001, 3.24731953e-002, 2.00725839e-001,
          -5.69888651e-001, 4.90061879e-001, -1.53810233e-001 ]
      - [ -7.06242323e-001, 6.37118399e-001, 1.01986885e+000,
          1.76251447e+000, -4.65808988e-001, 3.81450087e-001 ]
      - [ -1.84401655e+000, 1.04561377e+000, 7.87553668e-001,
          2.14115477e+000, 3.65039527e-001, 1.73996603e+000 ]
      - [ -1.12038386e+000, 1.12170443e-001, 8.93602788e-001,
          -5.69888651e-001, 3.05706412e-001, 5.43406755e-002 ]
      - [ -1.86832857e+000, 1.49847865e+000, 5.65392077e-002,
          1.54064655e+000, 1.62275100e+000, 8.44327092e-001 ]
      - [ -1.78443861e+000, -2.25283265e+000, -5.61226511e+000,
          -7.55382180e-001, 6.11349821e+000, 3.74298000e+000 ]
      - [ -4.53029871e-001, 6.86012626e-001, 1.19376302e+000,
          1.68931425e+000, -1.07187593e+000, 6.27566636e-001 ]
      - [ -3.18604439e-001, 1.32765150e+000, 3.68393707e+000,
          1.14571261e+000, -2.20134759e+000, -3.01944351e+000 ]
      - [ -1.52348220e+000, 1.06175268e+000, 1.40787983e+000,
          2.26364732e+000, -1.19681887e-001, 6.95705593e-001 ]
      - [ -2.00151944e+000, 5.35503244e+000, 2.91401553e+000,
          1.95435786e+000, -1.42266905e+000, 1.14823878e+000 ]
      - [ -1.84898579e+000, 2.61462665e+000, 1.28805935e+000,
          1.08375943e+000, 3.87419701e-001, 6.54204190e-001 ]
      - [ -4.23830509e-001, -7.60648668e-001, 2.65268181e-002,
          -7.55382180e-001, 1.25151888e-001, 7.45612621e-001 ]
      - [ -1.49165034e+000, 5.30247867e-001, 1.79201114e+000,
          1.26443982e+000, -7.17196107e-001, 9.92919445e-001 ]
      - [ -3.81938577e-001, 6.41619205e-001, 2.83072424e+000,
          1.75866520e+000, -1.48591268e+000, -2.38835478e+000 ]
      - [ -2.01906896e+000, 2.44879770e+000, 9.73785877e-001,
          1.49135435e+000, 5.15728831e-001, 1.42022634e+000 ]
      - [ -6.49640709e-002, -4.55633610e-001, -5.25308736e-002,
          -7.55382180e-001, -3.76598537e-002, 4.16600913e-001 ]
      - [ -1.74128991e-002, 6.79488957e-001, 2.72204161e+000,
          6.63931668e-001, -1.64609361e+000, -2.75880527e+000 ]
      - [ -7.60874569e-001, -1.03383565e+000, -7.26601720e-001,
          -7.55382180e-001, 1.09770238e+000, 1.21273720e+000 ]
      - [ -4.85289067e-001, -5.26837468e-001, -8.44297409e-001,
          -7.55382180e-001, 1.36929798e+000, 3.09649169e-001 ]
      - [ -1.43081379e+000, 7.63548613e-001, 8.71996582e-001,
          1.16812265e+000, 5.81192970e-001, 2.42845491e-001 ]
      - [ -7.13435769e-001, 2.56672621e-001, 7.78937161e-001,
          -7.55382180e-001, -3.65619838e-001, 7.29867399e-001 ]
      - [ -1.04807377e+000, 2.37434372e-001, 7.31082380e-001,
          3.17582905e-001, 5.76986551e-001, -2.99692690e-001 ]
      - [ -1.86643231e+000, 2.78650713e+000, 5.91733456e-001,
          2.01866221e+000, 7.93281376e-001, 1.35322273e+000 ]
      - [ -1.61937094e+000, 6.74218833e-001, -6.71326974e-003,
          1.21384919e-001, 8.59555960e-001, 1.96910715e+000 ]
      - [ -1.64859641e+000, 3.15044427e+000, 3.78711390e+000,
          2.55486608e+000, -1.59656358e+000, -1.14948654e+000 ]
      - [ -6.26005054e-001, 1.58421266e+000, 1.23728776e+000,
          1.64308023e+000, -9.95879591e-001, 7.84353316e-001 ]
      - [ -1.34967387e+000, -2.05199337e+000, -3.83285117e+000,
          -7.55382180e-001, 4.66454983e+000, 2.03858542e+000 ]
      - [ -1.39165342e+000, -2.16730070e+000, -3.89224267e+000,
          -7.55382180e-001, 4.35337305e+000, 2.86679626e+000 ]
      - [ -2.02499866e+000, 2.68052149e+000, 1.45363498e+000,
          2.11803770e+000, 1.69844791e-001, 1.11246908e+000 ]
      - [ -8.18710804e-001, 3.38795006e-001, 1.38751078e+000,
          1.69741893e+000, -8.25349271e-001, 5.56458235e-001 ]
      - [ -1.36300802e+000, 2.67364115e-001, 1.52465785e+000,
          -7.55382180e-001, -5.37930012e-001, 9.21968758e-001 ]
      - [ -1.54280257e+000, 1.10152793e+000, 2.31010690e-001,
          2.26364732e+000, 1.06935596e+000, 8.84890318e-001 ]
      - [ -6.99453056e-002, -7.61238039e-001, -8.37688506e-001,
          -5.69888651e-001, 8.33213627e-001, 4.37401235e-001 ]
      - [ -1.03504777e+000, -9.79226649e-001, -7.14430749e-001,
          -7.55382180e-001, 1.63521469e+000, 7.01587319e-001 ]
      - [ -9.22172308e-001, 2.03600001e+000, 3.52693200e+000,
          2.32489347e+000, -1.98670948e+000, -1.56270361e+000 ]
      - [ -2.77288616e-001, -5.26235402e-001, -2.12518588e-001,
          -4.47482705e-001, 4.95503366e-001, 1.89060181e-001 ]
      - [ -1.01496863e+000, 1.01597214e+000, 1.90776026e+000,
          1.87305284e+000, -1.19075215e+000, 6.05882168e-001 ]
      - [ -2.09331679e+000, 1.05868018e+000, 5.30211091e-001,
          1.68931425e+000, 9.37575161e-001, 1.66849077e+000 ]
      - [ -2.06093025e+000, 1.02454674e+000, 7.69853115e-001,
          1.78868961e+000, 3.73078912e-001, 2.21253610e+000 ]
      - [ -9.87852871e-001, 1.34340167e+000, 4.34805775e+000,
          1.83492362e+000, -2.24505067e+000, -2.67829299e+000 ]
      - [ -4.47113216e-001, 7.51849294e-001, 3.52318311e+000,
          1.52058768e+000, -1.94265842e+000, -2.84838271e+000 ]
      - [ -1.78705573e+000, -8.71189415e-001, -2.27574542e-001,
          -7.55382180e-001, 1.78840816e+000, 9.46184337e-001 ]
      - [ -1.81944275e+000, -4.49942231e-001, 3.01065981e-001,
          -7.55382180e-001, 1.46803844e+000, 5.33403039e-001 ]
      - [ -1.43413973e+000, -4.07884121e-001, -4.41751182e-001,
          -3.86236489e-001, 1.15625477e+000, 1.92016315e+000 ]
      - [ -4.55664247e-001, -1.56156421e-001, 1.52818298e+000,
          1.19123960e+000, -1.19135666e+000, 1.25836000e-001 ]
      - [ -9.48459208e-001, -1.85323763e+000, -1.21745491e+000,
          -7.55382180e-001, 1.87599397e+000, 1.13155043e+000 ]
      - [ -9.30393636e-001, -1.90846726e-001, 3.54732722e-001,
          -7.55382180e-001, 1.80051848e-002, 1.38345540e+000 ]
      - [ -1.63490760e+000, 2.52448153e+000, 1.95411384e+000,
          2.11497951e+000, -9.29509938e-001, 1.38672209e+000 ]
      - [ -9.51266229e-001, 1.53578389e+000, 2.80768275e+000,
          1.78563142e+000, -1.33742595e+000, -1.22049272e+000 ]
      - [ 6.21302724e-002, -1.20942307e+000, -1.45737255e+000,
          -7.55382180e-001, 1.50162411e+000, 1.78676158e-001 ]
      - [ -2.18738914e+000, 1.28402293e+000, 1.02202964e+000,
          1.74750221e+000, 1.52284294e-001, 2.38242102e+000 ]
      - [ -2.45943695e-001, -5.55972159e-001, -7.34385192e-001,
          -7.55382180e-001, 1.06700158e+000, 1.31153196e-001 ]
      - [ -6.90395653e-001, -1.03600949e-001, -6.02195822e-002,
          -5.69888651e-001, 7.17152059e-001, 3.47848147e-001 ]
      - [ -8.90976191e-001, -7.64002264e-001, -2.00516894e-001,
          -3.86236489e-001, 1.06365144e+000, 4.08904284e-001 ]
      - [ -2.19989634e+000, 1.43101060e+000, 1.09634900e+000,
          9.75209355e-001, 2.25407258e-001, 2.11102247e+000 ]
      - [ -7.23375797e-001, -2.59279191e-001, 7.20639110e-001,
          -7.55382180e-001, 2.73716331e-001, -4.11466837e-001 ]
      - [ -8.66762161e-001, -2.72643507e-001, -9.13141608e-001,
          -7.55382180e-001, 1.36795604e+000, 1.31022823e+000 ]
      - [ -1.20338380e+000, -9.69792962e-001, -2.47659445e-001,
          -7.55382180e-001, 1.14757001e+000, 1.02846873e+000 ]
      - [ -1.49388468e+000, -1.17355675e-001, 4.67403799e-001,
          -8.60301778e-002, 6.01090431e-001, 1.20637608e+000 ]
      - [ -9.81535673e-001, 2.47635245e-001, 3.22602749e-001,
          1.17622745e+000, 1.85994118e-001, 1.22967815e+000 ]
      - [ -1.66026103e+000, -4.28323567e-001, 1.39540151e-001,
          8.82741332e-001, 1.01754892e+000, 1.43110621e+000 ]
      - [ -1.01751459e+000, -1.15258372e+000, -1.26863706e+000,
          -7.55382180e-001, 2.07347393e+000, 9.94076669e-001 ]
      - [ -6.06002808e-001, 1.86470342e+000, 2.75784087e+000,
          1.93124092e+000, -1.64845455e+000, -1.32932305e+000 ]
      - [ -1.26493275e+000, -2.33079100e+000, -5.12584019e+000,
          -7.55382180e-001, 5.38419676e+000, 3.22986984e+000 ]
      - [ -3.67449492e-001, -6.54267430e-001, 2.31148660e-001,
          -7.55382180e-001, -1.24775767e-001, 6.63065553e-001 ]
      - [ -9.13810670e-001, 1.90730810e-001, 8.77308249e-001,
          9.22563374e-001, -2.93842196e-001, 8.26718390e-001 ]
      - [ -6.68914378e-001, -7.93125510e-001, -8.58991206e-001,
          -7.55382180e-001, 1.17206728e+000, 1.15314662e+000 ]
      - [ -2.93508530e-001, -7.65611589e-001, 4.95362937e-001,
          -5.69888651e-001, -3.30121249e-001, 3.11033219e-001 ]
      - [ -4.43070158e-002, -1.10855484e+000, -8.68203640e-001,
          -7.55382180e-001, 1.00535786e+000, 9.37161297e-002 ]
      - [ -1.48793280e+000, -3.94173935e-002, 1.86951131e-001,
          -7.55382180e-001, 1.27312493e+000, 4.56180722e-001 ]
      - [ -5.03455400e-001, -2.29331553e-001, 2.38080692e+000,
          2.94465899e-001, -1.08882880e+000, -1.87856734e+000 ]
      - [ 4.28244710e-001, -1.43289471e+000, -1.17816150e+000,
          -7.55382180e-001, 9.81144309e-001, -2.61111170e-001 ]
      - [ -3.45964164e-001, -7.59517848e-001, -1.75158560e-001,
          -7.55382180e-001, 1.90137491e-001, 8.87797892e-001 ]
      - [ -3.47026169e-001, -4.40982252e-001, -4.27281916e-001,
          -8.60301778e-002, 3.43787491e-001, 1.14608181e+000 ]
      - [ -1.39358699e+000, -8.40240195e-002, 7.98960626e-001,
          6.71946883e-001, -1.23836726e-001, 1.72287416e+000 ]
      - [ -6.17953658e-001, 1.07177787e-001, -7.97791064e-001,
          3.78829151e-001, 1.25418174e+000, 7.37370253e-001 ]
      - [ -1.77923536e+000, 1.39950931e+000, 1.29364622e+000,
          1.77367747e+000, 2.75063604e-001, 7.14040041e-001 ]
      - [ -1.81553221e+000, 4.88000488e+000, 4.05247498e+000,
          1.35690784e+000, -1.79751968e+000, -9.21091378e-001 ]
      - [ -7.47910738e-001, -9.12106216e-001, -1.57666996e-001,
          -7.55382180e-001, 7.06057727e-001, 7.16264069e-001 ]
      - [ -9.00634468e-001, -1.60060041e-002, 1.32053483e+000,
          2.03061628e+000, -7.51881897e-001, 7.45463550e-001 ]
      - [ -1.60707438e+000, 1.89435399e+000, 8.37625086e-001,
          2.43237376e+000, 3.49392086e-001, 1.16091919e+000 ]
      - [ -4.16089177e-001, -8.49843919e-001, -4.17621844e-002,
          -7.55382180e-001, 1.97430953e-001, 7.34138548e-001 ]
      - [ -1.55540752e+000, 8.43176782e-001, -2.65044570e-001,
          1.78868961e+000, 1.67775702e+000, 7.60256231e-001 ]
      - [ -1.39451504e-001, -5.36632895e-001, 6.38916075e-001,
          -3.86236489e-001, -5.16071737e-001, -3.54720023e-003 ]
      - [ -5.84899902e-001, 2.25482166e-001, 3.13124132e+000,
          1.73554826e+000, -1.61917245e+000, -2.27474380e+000 ]
      - [ -1.75899768e+000, 6.65024698e-001, 8.33703518e-001,
          1.81180668e+000, 2.29590282e-001, 1.73100650e+000 ]
      - [ -1.74723566e-002, -7.55959034e-001, -1.18495333e+000,
          -7.55382180e-001, 1.32526243e+000, 1.00070417e-001 ]
      - [ -2.85327196e-001, 4.62745488e-001, 2.20390868e+000,
          -3.86236489e-001, -1.03450167e+000, -2.13925409e+000 ]
      - [ -4.56674576e-001, -3.95490341e-002, 3.16360521e+000,
          2.94465899e-001, -1.61802530e+000, -2.67670584e+000 ]
      - [ -1.24141979e+000, 1.87797710e-001, 1.45717382e+000,
          6.94362402e-001, -9.02237073e-002, -1.00766703e-001 ]
      - [ -1.04290879e+000, -1.55953363e-001, -1.24416076e-001,
          -7.55382180e-001, 7.36111343e-001, 1.23659670e+000 ]
      - [ -1.49282277e+000, -8.42604816e-001, -1.21001267e+000,
          -7.55382180e-001, 2.02236629e+000, 1.96176827e+000 ]
      - [ -1.68752754e+000, 3.68513137e-001, 3.97210151e-001,
          1.50251734e+000, 9.18799877e-001, 1.13828695e+000 ]
      - [ -6.01807773e-001, -7.34696388e-001, -3.58831473e-002,
          -7.55382180e-001, 4.21164066e-001, 6.92107379e-001 ]
      - [ 2.85622589e-002, -6.20317876e-001, -2.82615215e-001,
          -7.55382180e-001, 1.31290518e-002, 6.17974222e-001 ]
      - [ -7.62455821e-001, 5.37937880e-001, 4.13872528e+000,
          2.49361992e+000, -2.21745968e+000, -2.84880090e+000 ]
      - [ -8.97626877e-002, 3.10631752e-001, 2.78183866e+000,
          1.60495102e+000, -1.65856981e+000, -2.68025017e+000 ]
      - [ -1.85435092e+000, 2.55719805e+000, 1.25325418e+000,
          2.14115477e+000, 5.05449116e-001, 5.05903542e-001 ]
      - [ -4.49469209e-001, 2.48587623e-001, -8.50771010e-001,
          -2.04505786e-001, 1.22060168e+000, 5.45830548e-001 ]
      - [ -1.97346449e+000, 1.82494402e+000, 5.46387970e-001,
          1.81180668e+000, 1.01923537e+000, 1.22641015e+000 ]
      - [ -7.36322284e-001, -8.38708639e-001, -4.40903783e-001,
          -7.55382180e-001, 7.95507371e-001, 1.13685572e+000 ]
      - [ -4.79229465e-002, 1.13196349e+000, 3.39288378e+000,
          1.21001709e+000, -2.19712400e+000, -3.08394456e+000 ]
      - [ -9.12973583e-001, 2.76009989e+000, 3.02645111e+000,
          2.24053025e+000, -1.44463384e+000, -1.57808399e+000 ]
      - [ -1.05581319e+000, -1.77086052e-002, 1.09543955e+000,
          -7.55382180e-001, -1.43271863e-001, 3.69302213e-001 ]
      - [ -8.95495355e-001, 6.81473792e-001, 1.21647167e+000,
          1.49056327e+000, -1.62080169e-001, -2.26229742e-001 ]
      - [ -1.29505718e+000, 2.26255283e-001, 8.74618113e-001,
          1.57492650e+000, 1.17932312e-001, 8.61642540e-001 ]
      - [ -1.05142570e+000, 1.17687511e+000, 4.28591585e+000,
          2.20240092e+000, -2.12148809e+000, -2.63008523e+000 ]
      - [ -1.20335412e+000, -7.05559328e-002, 3.27373147e-002,
          8.76329362e-001, 8.79452944e-001, 9.57604587e-001 ]
      - [ -6.54862821e-001, -7.34452009e-001, 1.98083118e-001,
          -7.55382180e-001, 1.86346263e-001, 7.68054307e-001 ]
      - [ -1.93097368e-001, -6.33572638e-001, -1.64475907e-002,
          -7.55382180e-001, 1.51453372e-002, 5.29183388e-001 ]
      - [ -2.70141304e-001, -1.63112772e+000, -7.19673991e-001,
          -7.55382180e-001, 1.11650670e+000, 5.24731129e-002 ]
      - [ -1.09717585e-001, -9.40988719e-001, -5.22603571e-001,
          -7.55382180e-001, 8.27454627e-001, -1.78360358e-001 ]
      - [ 1.58170968e-001, -8.34471464e-001, -9.02802944e-001,
          -7.55382180e-001, 9.67983067e-001, -2.27807850e-001 ]
      - [ -1.59322292e-001, 2.65734121e-002, 3.78505707e-001,
          -2.65752017e-001, -3.78224611e-001, 3.55503827e-001 ]
      - [ -4.52549309e-001, -6.27028048e-001, 5.13716340e-001,
          -5.69888651e-001, -4.70613182e-001, 9.30213630e-001 ]
      - [ -5.46053290e-001, -3.88804287e-001, 2.37657040e-001,
          -7.55382180e-001, 4.93454993e-001, -1.93868309e-001 ]
      - [ -1.41763520e+000, 1.50522363e+000, 1.08707249e+000,
          2.28676414e+000, 1.78866044e-001, 5.54102957e-001 ]
      - [ -6.99530005e-001, 1.72797310e+000, 1.08537614e+000,
          1.89183033e+000, -7.32097864e-001, 7.59454131e-001 ]
      - [ -4.85276073e-001, 6.66847765e-001, 9.46954072e-001,
          1.05860233e+000, -7.16862738e-001, 5.35539985e-001 ]
      - [ 1.48878828e-001, -1.03258920e+000, -8.40935409e-001,
          -7.55382180e-001, 8.73490632e-001, -1.53782457e-001 ]
      - [ -1.44846368e+000, -7.96224952e-001, 1.27304482e+000,
          3.78829151e-001, -3.02354664e-001, 1.18197322e+000 ]
      - [ 3.47512476e-002, 4.76801783e-001, 1.13451302e+000,
          8.46879303e-001, -5.78338683e-001, -1.44089830e+000 ]
      - [ -8.93332422e-001, 3.37834311e+000, 3.29843068e+000,
          2.14115477e+000, -1.67169726e+000, -1.76668620e+000 ]
      - [ -9.16003406e-001, 3.75531822e-001, 2.87718081e+000,
          1.20580328e+000, -1.18727243e+000, -1.76122189e+000 ]
      - [ -3.26025099e-001, -1.03277183e+000, -8.55356038e-001,
          -7.55382180e-001, 1.17034888e+000, 3.78058076e-001 ]
      - [ -1.29192746e+000, 1.17564154e+000, 1.52789807e+000,
          1.67815125e+000, -1.44248530e-001, -3.08759548e-002 ]
      - [ -1.51979518e+000, 8.10442030e-001, 1.26270497e+000,
          1.56682169e+000, -1.88941732e-001, 1.13510191e+000 ]
      - [ -1.57375193e+000, 1.96533036e+000, 1.41970062e+000,
          2.40925670e+000, -2.81011760e-001, 1.10158622e+000 ]
      - [ 6.52567521e-002, 6.27376735e-001, 1.05414319e+000,
          8.88409197e-001, -1.32631028e+000, 2.09068194e-001 ]
      - [ -1.62689120e-001, -5.13045609e-001, -3.43509495e-001,
          -7.55382180e-001, 2.56632000e-001, 7.07943022e-001 ]
      - [ -1.11617804e+000, 3.42883333e-003, 1.38052249e+000,
          1.59883463e+000, -9.79918540e-001, 1.56382608e+000 ]
      - [ -6.21420324e-001, -1.18427539e+000, -9.67369497e-001,
          -7.55382180e-001, 1.21317613e+000, 1.20609677e+000 ]
      - [ -1.04565418e+000, -6.45269156e-001, -1.14640582e+000,
          -7.55382180e-001, 1.47756588e+000, 1.98414934e+000 ]
      - [ -6.64224923e-001, -3.71623337e-001, -7.73120344e-001,
          -2.65752017e-001, 1.20664740e+000, 8.81798208e-001 ]
      - [ -7.56693006e-001, 2.36241326e-001, 4.29775357e-001,
          6.56233191e-001, 4.33125287e-001, -1.25287175e-002 ]
      - [ -1.62832165e+000, 4.96266484e-001, 8.63736033e-001,
          1.80874848e+000, 1.94520801e-001, 1.45834219e+000 ]
      - [ -1.08811390e+000, -2.05009317e+000, -2.26964426e+000,
          -7.55382180e-001, 3.42772174e+000, 6.07184768e-001 ]
      - [ -1.78185093e+000, -2.74978258e-004, -6.19561851e-001,
          -7.55382180e-001, 1.77300274e+000, 1.79233170e+000 ]
      - [ 1.01199904e-002, -4.44527954e-001, 4.51632679e-001,
          -2.04505786e-001, -7.13202953e-001, 4.68548059e-001 ]
      - [ -4.26081210e-001, 4.18091953e-001, 2.65159059e+000,
          -1.47276402e-001, -1.24019432e+000, -2.37326169e+000 ]
      - [ -5.23832262e-001, -5.85660219e-001, 1.84614528e-002,
          -7.55382180e-001, 3.68609242e-002, 1.17315912e+000 ]
      - [ -7.24729240e-001, -1.39405441e+000, -1.12288964e+000,
          -7.55382180e-001, 1.40348470e+000, 1.39296985e+000 ]
      - [ -1.26440763e+000, 2.26991940e+000, 1.29365873e+000,
          1.77367747e+000, -7.19994307e-001, 1.56353223e+000 ]
      - [ 2.08427384e-001, 9.88442063e-001, 2.50812078e+000,
          1.50251734e+000, -1.66044629e+000, -2.83356571e+000 ]
      - [ -6.72066510e-001, 4.22277510e-001, 7.15957403e-001,
          1.20824027e+000, -4.66790855e-001, 9.79196012e-001 ]
      - [ -1.47579825e+000, 1.57227606e-001, 6.17515529e-003,
          -2.04505786e-001, 1.18994105e+000, 9.82208848e-001 ]
      - [ -1.70616817e+000, 1.67555451e+000, -1.97966978e-001,
          1.77061927e+000, 1.77344418e+000, 7.44803607e-001 ]
      - [ -1.18076348e+000, -6.04394555e-001, -1.02814007e+000,
          -7.55382180e-001, 1.73146927e+000, 1.50292635e+000 ]
      - [ -1.28119200e-001, -8.90696049e-001, -1.18829620e+000,
          -7.55382180e-001, 1.26933074e+000, 4.78421271e-001 ]
      - [ -1.04286611e+000, -5.57676971e-001, -3.34833205e-001,
          -7.55382180e-001, 1.23337650e+000, 6.97004259e-001 ]
      - [ -1.90773356e+000, 1.79390028e-001, 6.52151644e-001,
          -7.55382180e-001, 8.04298699e-001, 1.29128444e+000 ]
      - [ -1.69385803e+000, 2.64434218e-001, -4.34059471e-001,
          -1.70393407e-001, 1.55287910e+000, 1.65571237e+000 ]
      - [ -1.91710186e+000, 2.73568702e+000, 8.36775661e-001,
          1.52058768e+000, 7.92133808e-001, 9.48034048e-001 ]
      - [ -1.94094133e+000, 3.65350723e+000, 6.19107187e-001,
          1.74750221e+000, 9.53267992e-001, 1.13639700e+000 ]
      - [ -7.49763787e-001, -6.68759763e-001, 5.95358871e-002,
          -7.55382180e-001, 4.72205251e-001, 7.12334573e-001 ]
      - [ -2.10101342e+000, 2.82551616e-001, 2.76982427e-001,
          -1.47276402e-001, 1.22227681e+000, 1.65133834e+000 ]
      - [ -5.36537707e-001, 1.73601127e+000, 2.88678288e+000,
          1.93124092e+000, -1.41753697e+000, -2.26030827e+000 ]
      - [ -7.24051893e-001, 2.42382154e-001, -2.13947460e-001,
          9.15870517e-002, 8.13399136e-001, 5.70212603e-001 ]
      - [ -1.52237320e+000, 1.30440593e+000, 1.17791079e-001,
          1.52869248e+000, 1.34092331e+000, 5.42993844e-001 ]
      - [ 2.19836682e-002, -1.15858817e+000, -1.14421535e+000,
          -7.55382180e-001, 1.12235284e+000, 3.32116991e-001 ]
      - [ -9.85890627e-002, -6.26306593e-001, -7.25805759e-001,
          -7.55382180e-001, 9.82198954e-001, -5.76219559e-002 ]
      - [ -1.77797222e+000, 1.31462798e-001, 6.31612480e-001,
          7.50778675e-001, 8.82711530e-001, 9.06073630e-001 ]
      - [ -4.00966913e-001, -9.03564036e-001, -5.92471540e-001,
          -7.55382180e-001, 6.76272392e-001, 9.63612556e-001 ]
      - [ -1.97003138e+000, 7.11190850e-002, 7.43964434e-001,
          -7.55382180e-001, 1.15125275e+000, 5.46318531e-001 ]
      - [ -1.54861763e-001, -7.53719091e-001, -1.07629454e+000,
          -7.55382180e-001, 1.38997781e+000, 3.70687433e-002 ]
      - [ -8.04361582e-001, -2.47115389e-001, 9.31757510e-001,
          -3.86236489e-001, 1.68854088e-001, -4.78246123e-001 ]
      - [ -5.39610088e-001, -5.44193625e-001, 8.97148430e-001,
          -7.55382180e-001, -3.89287800e-001, 1.09298438e-001 ]
      - [ -1.77566588e+000, 1.62535548e+000, 8.09823394e-001,
          1.57877576e+000, 8.86297941e-001, 5.18231571e-001 ]
      - [ 3.39951634e-001, -6.06558323e-001, -1.00287819e+000,
          -7.55382180e-001, 8.16468000e-001, -1.16779715e-001 ]
      - [ -1.30128336e+000, 1.68812966e+000, 1.37770259e+000,
          1.86871326e+000, -8.20299089e-002, 1.89939201e-001 ]
      - [ -1.96931529e+000, 2.78018689e+000, 1.13166340e-001,
          1.45934153e+000, 1.38917089e+000, 1.39487982e+000 ]
      - [ -5.46134770e-001, -6.94719553e-001, -8.82795095e-001,
          -7.55382180e-001, 1.22639000e+000, 8.23157191e-001 ]
      - [ -7.87021101e-001, -1.04747510e+000, -7.26678729e-001,
          -7.55382180e-001, 1.16207135e+000, 1.14032173e+000 ]
      - [ 2.02207074e-001, -1.08993852e+000, -1.26746321e+000,
          -7.55382180e-001, 1.19165087e+000, 5.11173308e-002 ]
      - [ -3.45297515e-001, -5.69293261e-001, -4.88623917e-001,
          -7.55382180e-001, 8.59006345e-001, 2.29168147e-001 ]
      - [ -1.92250717e+000, 1.43011868e+000, 2.11763644e+000,
          1.49135435e+000, -4.91181523e-001, 8.05794358e-001 ]
      - [ -1.10478985e+000, 2.23031545e+000, 3.19486809e+000,
          1.43010819e+000, -1.53648198e+000, -1.29461241e+000 ]
      - [ -1.69953203e+000, 9.64438379e-001, 8.99909258e-001,
          1.86999464e+000, 5.51893473e-001, 8.26322734e-001 ]
      - [ -1.53983641e+000, 3.78516346e-001, -2.51344770e-001,
          1.52833283e-001, 1.29689884e+000, 1.45495248e+000 ]
      - [ 1.59430355e-002, -7.14135408e-001, -7.79414415e-001,
          -7.55382180e-001, 9.21599150e-001, -7.95399100e-002 ]
      - [ -1.98227966e+000, 3.67088890e+000, 1.14699332e-002,
          1.83492362e+000, 1.56377065e+000, 1.29023945e+000 ]
      - [ -6.10625863e-001, -6.33780003e-001, -2.64258087e-001,
          -2.04505786e-001, 4.80878621e-001, 1.10018110e+000 ]
      - [ -1.48811948e+000, 6.56763256e-001, 8.71775031e-001,
          1.64002204e+000, 5.91641009e-001, 3.48425955e-001 ]
      - [ -2.03805184e+000, 2.37870073e+000, 1.66570413e+000,
          1.94240391e+000, 1.21020101e-001, 7.94277668e-001 ]
      - [ -1.87969577e+000, -6.09966934e-001, 4.04560901e-002,
          -7.55382180e-001, 1.60622478e+000, 9.34306681e-001 ]
      - [ -6.38521969e-001, -7.54920363e-001, -9.45784226e-002,
          -7.55382180e-001, 4.62625951e-001, 8.22237611e-001 ]
      - [ -1.37267756e+000, 7.61583328e-001, 1.75897336e+000,
          1.51752961e+000, -6.57659113e-001, 6.78756237e-001 ]
      - [ -2.24714369e-001, -1.09882224e+000, -8.13307881e-001,
          -7.55382180e-001, 1.13578582e+000, 1.20562337e-001 ]
      - [ -3.11101973e-001, -8.62341762e-001, -8.30261230e-001,
          -7.55382180e-001, 1.17392993e+000, 2.79839069e-001 ]
      - [ -1.96166706e+000, 3.20489585e-001, 1.58150136e-001,
          -7.55382180e-001, 1.24674010e+000, 1.56560481e+000 ]
      - [ -1.36188412e+000, -1.56044304e-001, 1.73267102e+000,
          -3.86236489e-001, -7.10882068e-001, 8.17166030e-001 ]
      - [ -7.60580957e-001, -7.10307002e-001, -5.73092839e-003,
          -7.55382180e-001, 5.19325256e-001, 7.85939991e-001 ]
      - [ -6.81534469e-001, -5.94803929e-001, -5.83275139e-001,
          -2.65752017e-001, 1.02425265e+000, 8.67823780e-001 ]
      - [ -6.33873403e-001, -7.64264166e-003, 6.68125629e-001,
          -4.47482705e-001, -4.22645271e-001, 9.08066511e-001 ]
      - [ -5.98888516e-001, 2.23840356e-001, 1.47136438e+000,
          3.38839084e-001, -1.07486546e+000, 3.58783096e-001 ]
      - [ 2.02741355e-001, -4.00086939e-001, 3.11497692e-002,
          -7.55382180e-001, -1.57400772e-001, -1.75595894e-001 ]
      - [ -1.47162735e+000, 9.13658068e-002, 8.03529680e-001,
          1.71243119e+000, 3.28908622e-001, 9.81080294e-001 ]
      - [ -1.87949264e+000, 7.56065965e-001, 1.18982911e+000,
          1.65118504e+000, 5.64090669e-001, 5.77365994e-001 ]
      - [ -1.80348635e+000, -3.56260955e-001, 6.05866350e-002,
          -8.60301778e-002, 1.02946329e+000, 1.87293804e+000 ]
      - [ 1.01224802e-001, -5.65491199e-001, 1.25528157e-001,
          -3.86236489e-001, 4.02345248e-002, -5.54006040e-001 ]
      - [ -1.34253156e+000, 1.67846715e+000, 8.76875341e-001,
          2.28676414e+000, 3.04736614e-001, 5.88751256e-001 ]
      - [ -5.94204605e-001, 3.54384512e-001, 7.72162318e-001,
          9.60692585e-001, 5.29740155e-002, -3.80925059e-001 ]
      - [ -1.65664732e+000, 3.07049537e+000, 3.64668441e+000,
          1.55260062e+000, -1.53157592e+000, -9.61536169e-001 ]
      - [ -1.14136255e+000, 8.51118565e-001, 1.34376121e+000,
          1.06568897e+000, -1.06605940e-001, -5.00403270e-002 ]
      - [ -1.47384262e+000, -2.33134127e+000, -5.98525572e+000,
          -7.55382180e-001, 6.57371283e+000, 3.08025646e+000 ]
      - [ -9.71068621e-001, -5.86990952e-001, 1.46508336e-001,
          -2.04505786e-001, 4.73028809e-001, 1.01466322e+000 ]
      - [ -8.82348299e-001, 1.20459974e-001, -2.73373097e-001,
          -7.55382180e-001, 1.12731493e+000, 4.21627194e-001 ]
      - [ -2.01403022e-001, -9.75074589e-001, -1.93396240e-001,
          -7.55382180e-001, 1.22727528e-001, 7.30958998e-001 ]
      - [ -7.31112778e-001, -2.17794463e-001, 2.52728254e-001,
          3.78829151e-001, 2.78903067e-001, 6.33030534e-001 ]
      - [ -1.65297341e+000, -1.00963938e+000, -3.64757955e-001,
          -7.55382180e-001, 1.75542152e+000, 1.02277505e+000 ]
      - [ -8.84523630e-001, 8.27364266e-001, 3.25955319e+000,
          1.60189283e+000, -1.50046289e+000, -2.04814577e+000 ]
      - [ -1.87145269e+000, 1.73332393e+000, 2.16702080e+000,
          2.22551799e+000, -7.35262454e-001, 1.07214415e+000 ]
      - [ -6.00728810e-001, -1.23951721e+000, -7.26705790e-002,
          -7.55382180e-001, 5.12600780e-001, 5.86186588e-001 ]
      - [ -1.30047750e+000, 6.30042374e-001, 8.68206546e-002,
          1.13645232e+000, 9.08683956e-001, 9.93083477e-001 ]
      - [ -5.02322972e-001, -1.20209980e+000, -9.16879475e-001,
          -7.55382180e-001, 1.33099651e+000, 5.88669121e-001 ]
      - [ -4.46506709e-001, -1.29706657e+000, -7.10444927e-001,
          -7.55382180e-001, 1.09632421e+000, 4.76812333e-001 ]
      - [ -1.79757333e+000, 3.46182674e-001, 1.37859598e-001,
          2.20094789e-002, 9.08328593e-001, 1.93729579e+000 ]
      - [ -2.06797862e+000, 3.71419621e+000, -3.64284009e-001,
          1.84687769e+000, 1.81170809e+000, 1.75994420e+000 ]
      - [ -2.09210992e+000, 3.92602533e-001, 5.78757405e-001,
          7.89033711e-001, 8.76715541e-001, 1.68464267e+000 ]
      - [ -4.53313261e-001, -5.92526719e-002, 9.02803540e-001,
          -2.04505786e-001, -6.12080276e-001, 3.45870733e-001 ]
      - [ -1.12345910e+000, -2.44652063e-001, 2.87197858e-001,
          7.60248899e-001, 3.87072414e-001, 1.21689570e+000 ]
      - [ -4.49885219e-001, -4.29653466e-001, -1.18842006e-001,
          -7.55382180e-001, 2.77362168e-001, 8.22517157e-001 ]
      - [ -1.88362598e+000, 2.85697961e+000, 1.18735039e+000,
          1.66313899e+000, 5.34591675e-001, 6.49614573e-001 ]
      - [ -1.10534883e+000, 5.10957301e-001, -2.33625993e-002,
          1.82631150e-001, 8.75759661e-001, 8.72733951e-001 ]
      - [ 2.27356791e-001, -7.86130488e-001, -4.84626293e-001,
          -7.55382180e-001, 5.41867733e-001, -4.83748972e-001 ]
      - [ -8.01853120e-001, -1.36840498e+000, -4.95166004e-001,
          -7.55382180e-001, 1.17782462e+000, 6.29753649e-001 ]
      - [ -9.28722978e-001, 3.14000368e-001, 1.93422377e-001,
          -5.69888651e-001, 3.78506422e-001, 1.00783634e+000 ]
      - [ -1.63668323e+000, 7.00969696e-001, 3.39174196e-002,
          2.66994387e-001, 6.36391997e-001, 2.36152291e+000 ]
      - [ -1.97173202e+000, 2.63343096e+000, 1.43298960e+000,
          1.12081885e+000, 3.23584825e-001, 7.39513934e-001 ]
      - [ -4.78967607e-001, 1.93409368e-001, -3.27559859e-001,
          -7.55382180e-001, 8.96501482e-001, 9.78590026e-002 ]
      - [ -7.98591077e-001, -3.44090015e-001, -2.94614211e-002,
          -7.55382180e-001, 6.28982008e-001, 7.02298284e-001 ]
      - [ -7.54720032e-001, -1.21739969e-001, -1.28407389e-001,
          7.17479408e-001, 8.29587221e-001, 4.17038739e-001 ]
      - [ -3.75683248e-001, -6.61587834e-001, -2.86973178e-001,
          -7.55382180e-001, 4.63482767e-001, 6.51047289e-001 ]
      - [ -1.98396933e+000, 1.56762552e+000, 6.68035626e-001,
          2.07990861e+000, 1.05379772e+000, 9.26111162e-001 ]
      - [ -1.24524784e+000, 1.80090582e+000, 8.50822985e-001,
          2.05679154e+000, 1.59521967e-001, 7.19518602e-001 ]
      - [ -2.29725525e-001, -3.23895276e-001, 2.58270383e+000,
          3.03408299e-002, -1.28433990e+000, -2.62970471e+000 ]
      - [ -1.78225923e+000, 2.05460310e+000, 1.40462673e+000,
          2.40925670e+000, -3.11105281e-001, 1.64536643e+000 ]
      - [ 8.55119079e-002, 7.29900718e-001, 2.57495809e+000,
          1.21820581e+000, -1.59843731e+000, -2.78991890e+000 ]
      - [ 1.17655225e-001, -3.65634322e-001, 8.16879392e-001,
          -9.21516195e-002, -9.94988322e-001, -5.61870933e-002 ]
      - [ -1.25034142e+000, -5.05171537e-001, -2.11012244e-001,
          -2.47839559e-002, 9.50734675e-001, 1.44404566e+000 ]
      - [ -2.57450908e-001, -6.71427786e-001, -8.15662384e-001,
          -7.55382180e-001, 9.43038523e-001, 5.95638871e-001 ]
      - [ -1.26271605e+000, 2.21874014e-001, 5.19486308e-001,
          7.60248899e-001, 1.60046548e-001, 1.47304296e+000 ]
      - [ -1.88015509e+000, 3.00571823e+000, -1.04990482e-001,
          2.03367448e+000, 1.45639801e+000, 1.53612113e+000 ]
      - [ 1.31432861e-001, -9.07421947e-001, -1.23279178e+000,
          -7.55382180e-001, 1.22174144e+000, 7.53879622e-002 ]
      - [ -4.89285648e-001, -6.95975602e-001, 6.94694698e-001,
          -7.55382180e-001, -4.59103733e-001, 5.86419284e-001 ]
      - [ -1.56301475e+000, 2.26510733e-001, -1.21200420e-002,
          1.19934440e+000, 1.54024541e+000, 5.10679305e-001 ]
      - [ -5.67642033e-001, -4.19939458e-002, 2.06942484e-001,
          -7.55382180e-001, -1.37140214e-001, 1.20523500e+000 ]
      - [ -1.72618699e+000, 4.34989929e+000, 3.93038583e+000,
          2.01560402e+000, -1.80836129e+000, -8.51117074e-001 ]
      - [ -1.72386920e+000, 1.09102345e+000, 1.12769827e-001,
          1.80874848e+000, 8.96684527e-001, 1.86024320e+000 ]
      - [ -1.52296078e+000, 9.51355577e-001, 7.09513664e-001,
          1.37497830e+000, 2.03279287e-001, 1.54290438e+000 ]
      - [ -3.23059261e-001, -1.01843357e+000, -1.36937916e+000,
          -7.55382180e-001, 1.66301954e+000, 5.27530909e-001 ]
      - [ -1.45964420e+000, 1.34743774e+000, 1.06945252e+000,
          2.30988121e+000, 6.16315641e-002, 9.17823672e-001 ]
      - [ 5.47493339e-001, 2.43826360e-001, 7.71959960e-001,
          2.66994387e-001, -7.23021746e-001, -1.60576224e+000 ]
      - [ -6.25574648e-001, -5.99478781e-001, 6.79711401e-001,
          -7.55382180e-001, -1.62920788e-001, 3.36445421e-001 ]
      - [ -1.75611079e+000, 1.18184972e+000, 8.18800509e-001,
          1.11825609e+000, 5.88524997e-001, 1.04638886e+000 ]
      - [ 2.73137420e-001, -5.94577134e-001, -5.43380558e-001,
          -7.55382180e-001, 5.89871645e-001, -5.57712734e-001 ]
      - [ -9.00829136e-001, 5.09653091e-001, 1.82686508e-001,
          1.16200626e+000, 6.25979006e-001, 4.70475525e-001 ]
      - [ -4.38327575e-003, -9.67774764e-002, -6.45404518e-001,
          -7.55382180e-001, 6.78437173e-001, 1.60818934e-001 ]
      - [ -2.07789254e+000, 5.39502764e+000, 2.91961384e+000,
          1.41815412e+000, -1.44682920e+000, 1.35170245e+000 ]
      - [ -5.65676577e-003, -6.44593954e-001, -9.80603635e-001,
          -7.55382180e-001, 1.01499200e+000, 2.41456673e-001 ]
      - [ -1.74581039e+000, -1.36526406e+000, -1.18122064e-001,
          -5.69888651e-001, 1.35278261e+000, 1.49117172e+000 ]
      - [ -3.67564648e-001, -1.17815638e+000, -4.44221526e-001,
          -7.55382180e-001, 5.57373762e-001, 7.95585632e-001 ]
      - [ -1.02464581e+000, 9.31118131e-002, 1.23844337e+000,
          5.94986975e-001, -4.15811419e-001, 5.33540666e-001 ]
      - [ -7.84392595e-001, -1.63747108e+000, -4.42863178e+000,
          -7.55382180e-001, 4.27312279e+000, 3.03217959e+000 ]
      - [ -1.29546714e+000, -2.90833801e-001, 1.05305183e+000,
          -7.55382180e-001, -2.13411227e-001, 1.13955462e+000 ]
      - [ -1.95300722e+000, 3.85103893e+000, 8.36919785e-001,
          1.98053312e+000, 8.77852917e-001, 8.54536653e-001 ]
      - [ -1.75474644e+000, 2.67093480e-001, 7.31102526e-001,
          -7.55382180e-001, 7.00731218e-001, 1.00667262e+000 ]
      - [ -6.60334826e-001, -8.54140282e-001, -8.32306266e-001,
          -7.55382180e-001, 1.48522544e+000, 4.40355390e-001 ]
      - [ -1.99528623e+000, 4.91203308e+000, 4.26766008e-001,
          2.37112737e+000, 1.32503784e+000, 9.19676542e-001 ]
      - [ -8.46562624e-001, -8.56456220e-001, -5.15706062e-001,
          -7.55382180e-001, 1.11907911e+000, 8.92582357e-001 ]
      - [ -6.43476188e-001, -5.05303800e-001, 2.56052241e-002,
          -7.55382180e-001, 1.82634383e-001, 1.13347268e+000 ]
      - [ 1.18271485e-001, -4.57446814e-001, 1.56600997e-001,
          -7.55382180e-001, 1.75633565e-001, -9.46933150e-001 ]
      - [ -1.02037525e+000, 8.04773420e-002, 1.31860375e-001,
          6.56233191e-001, 5.48929393e-001, 1.00333643e+000 ]
      - [ 3.36846381e-001, 8.39881226e-002, 7.72761822e-001,
          -7.55382180e-001, -1.10317290e+000, -2.77713686e-001 ]
      - [ -1.23809993e+000, 1.41067564e+000, 1.11506855e+000,
          2.30988121e+000, 6.26467243e-002, 3.25864077e-001 ]
      - [ -2.24959803e+000, 1.08799827e+000, 1.17599845e+000,
          1.01126611e+000, 2.39554971e-001, 2.02102160e+000 ]
      - [ -6.82553053e-001, -8.07353377e-001, -3.80852818e-001,
          -7.55382180e-001, 6.81007028e-001, 1.11551225e+000 ]
      - [ 2.89032813e-002, -1.26073623e+000, -8.56219828e-001,
          -7.55382180e-001, 9.19818759e-001, 7.02548102e-002 ]
      - [ -1.04250348e+000, 9.87284422e-001, 4.82173395e+000,
          2.17928410e+000, -2.49611259e+000, -3.06983256e+000 ]
      - [ -2.08280635e+000, 7.92941868e-001, 3.12644482e-001,
          1.46517920e+000, 1.06945372e+000, 1.84024119e+000 ]
      - [ -1.88098371e+000, 2.18248487e+000, 1.59025979e+000,
          1.29438031e+000, -2.90113464e-002, 9.10194755e-001 ]
      - [ -1.31664157e+000, -5.97611442e-002, 1.56631029e+000,
          -7.55382180e-001, -6.46076977e-001, 9.44304705e-001 ]
      - [ -5.83680153e-001, 1.83452117e+000, 3.54278135e+000,
          1.76251447e+000, -1.88052022e+000, -2.66604424e+000 ]
      - [ -9.30739343e-001, 7.12043762e-001, -6.61728323e-001,
          4.40075368e-001, 1.07897413e+000, 1.47875023e+000 ]
      - [ -8.67367804e-001, 1.92595518e+000, 2.98712516e+000,
          1.44432926e+000, -1.44833827e+000, -1.59605384e+000 ]
      - [ -2.01049876e+000, 2.42610812e-001, 6.76781476e-001,
          -5.69888651e-001, 9.61688042e-001, 1.14452684e+000 ]
      - [ -1.93052316e+000, 5.13295412e+000, 3.07777977e+000,
          2.07990861e+000, -1.57603216e+000, 9.50657427e-001 ]
      - [ 3.75378042e-001, -9.86204743e-001, -1.32623625e+000,
          -7.55382180e-001, 1.00501645e+000, 1.63615808e-001 ]
      - [ -1.34437144e+000, -8.47220793e-002, 3.05339158e-001,
          9.15870517e-002, 8.53583038e-001, 7.27572620e-001 ]
      - [ -1.72894740e+000, 1.70799792e+000, 7.67508686e-001,
          1.95741606e+000, 9.57978845e-001, 3.65628958e-001 ]
      - [ -8.05969596e-001, -4.78220701e-001, 4.00864929e-001,
          -7.55382180e-001, 1.24076217e-001, 7.88226783e-001 ]
      - [ -2.08584332e+000, 1.43034267e+000, 7.27212489e-001,
          1.68931425e+000, 4.40801650e-001, 2.21941042e+000 ]
      - [ -1.90310752e+000, 1.22509050e+000, 8.89138699e-001,
          1.70809162e+000, 5.32568455e-001, 1.32052255e+000 ]
      - [ -5.00566065e-001, -9.08562660e-001, -7.73165524e-001,
          -7.55382180e-001, 1.28032696e+000, 3.65645200e-001 ]
      - [ 9.20321822e-001, -1.13935459e+000, -7.45377064e-001,
          -7.55382180e-001, 2.33962178e-001, -9.51596260e-001 ]
      - [ -8.58096361e-001, 9.89131033e-001, 9.35458958e-001,
          1.20580328e+000, 9.44724008e-002, -2.11698547e-001 ]
      - [ -6.62551284e-001, -6.10139012e-001, -2.61463076e-001,
          -7.55382180e-001, 7.48666465e-001, 6.68201268e-001 ]
      - [ -1.74867606e+000, -1.13314487e-001, 1.17847025e-001,
          -7.55382180e-001, 1.26569498e+000, 1.17110300e+000 ]
      - [ -1.73110986e+000, 3.15987587e+000, 9.75288153e-001,
          2.34801054e+000, 2.01882198e-001, 1.42747390e+000 ]
      - [ -5.74967384e-001, -6.16743505e-001, -4.89599556e-001,
          -7.55382180e-001, 1.12635255e+000, 2.12531701e-001 ]
      - [ -1.67257237e+000, 1.41202247e+000, 1.45247531e+000,
          1.39197886e+000, 2.22108457e-002, 6.46862090e-001 ]
      - [ -5.02641201e-001, 3.53919864e-001, 6.73689246e-001,
          2.05748156e-001, 7.21440017e-002, -4.15490985e-001 ]
      - [ -2.07943153e+000, 1.78066719e+000, 1.47615397e+000,
          2.07990861e+000, 1.27648329e-002, 1.48954129e+000 ]
      - [ -1.28717268e+000, 1.03137136e+000, 4.35310543e-001,
          1.08171940e+000, 4.92192417e-001, 1.04441059e+000 ]
      - [ -1.20458651e+000, -2.55777866e-001, 2.90680677e-001,
          -7.55382180e-001, 9.09008622e-001, 3.42339665e-001 ]
      - [ -1.62504756e+000, 9.26884115e-001, 9.77438033e-001,
          9.12992954e-001, 1.91123158e-001, 1.21656847e+000 ]
      - [ -5.38468242e-001, 3.78884047e-001, -3.57402503e-001,
          -5.69888651e-001, 8.39653313e-001, 4.16363150e-001 ]
      - [ -4.52226430e-001, -1.31378281e+000, -7.78611481e-001,
          -7.55382180e-001, 9.22220826e-001, 9.97388899e-001 ]
      - [ -1.09443054e-001, 5.02626956e-001, 2.20092702e+000,
          9.36109960e-001, -1.21548581e+000, -2.21050882e+000 ]
      - [ -7.21636951e-001, 8.13730806e-002, 8.09605718e-001,
          3.03408299e-002, -4.73897696e-001, 8.99843931e-001 ]
      - [ -1.18105781e+000, 1.14486969e+000, 4.68560886e+000,
          2.28676414e+000, -2.31350756e+000, -2.78772783e+000 ]
      - [ -9.71604109e-001, 7.12377369e-001, 6.93667948e-001,
          9.12992954e-001, 1.64115414e-001, 4.38749254e-001 ]
      - [ -1.12657320e+000, 2.05218768e+000, 4.65762466e-001,
          2.01055741e+000, 3.78304988e-001, 8.53049994e-001 ]
      - [ -1.74562800e+000, 4.29457337e-001, -1.28768638e-001,
          -4.47482705e-001, 1.06323814e+000, 2.08611608e+000 ]
      - [ -9.37144876e-001, -7.93015540e-001, -1.40048254e+000,
          -7.55382180e-001, 1.65514731e+000, 1.95354998e+000 ]
      - [ -8.72462869e-001, -4.58974719e-001, -2.29159191e-001,
          -7.55382180e-001, 5.84822178e-001, 1.39618134e+000 ]
      - [ -9.51434314e-001, 1.98739755e+000, 1.98203564e+000,
          1.54064655e+000, -1.35130274e+000, 6.18262231e-001 ]
      - [ -1.07124269e+000, -2.51843661e-001, 6.76944911e-001,
          -1.47276402e-001, 4.62396950e-001, 1.00888662e-001 ]
      - [ -2.08361006e+000, 3.17692423e+000, 1.52016020e+000,
          1.30505288e+000, 1.84409678e-001, 1.06964278e+000 ]
      - [ -7.96739995e-001, 5.63219905e-001, 9.48801100e-001,
          -1.70393407e-001, 7.79753104e-002, -3.50075006e-001 ]
      - [ -1.04386675e+000, 1.29431581e+000, 1.32551503e+000,
          1.89311171e+000, -5.16025662e-001, 5.88606179e-001 ]
      - [ -2.56169975e-001, -1.38007545e+000, -1.10588753e+000,
          -7.55382180e-001, 1.39661551e+000, 3.23477805e-001 ]
      - [ -3.54244523e-002, -5.59897661e-001, -3.14748645e-001,
          -7.55382180e-001, 4.34857249e-001, -2.37349812e-002 ]
      - [ -3.56239438e-001, -2.33432844e-001, 4.66106422e-002,
          -7.55382180e-001, 7.70750269e-002, 6.41592801e-001 ]
      - [ 1.23368027e-002, -1.41556633e+000, -1.43184638e+000,
          -7.55382180e-001, 1.62759089e+000, -2.39519328e-002 ]
      - [ -6.71315670e-001, 1.04559481e+000, 3.27046418e+000,
          2.14115477e+000, -1.73791170e+000, -2.12565327e+000 ]
      - [ -1.75316608e+000, 6.04844689e-001, 4.56668198e-001,
          1.41310751e+000, 9.51274335e-001, 1.08711314e+000 ]
      - [ -1.57021189e+000, 1.56701100e+000, 3.98742527e-001,
          1.48245847e+000, 4.72416729e-001, 1.77161705e+000 ]
      - [ -1.81944713e-001, -6.59131706e-001, -8.39693308e-001,
          -7.55382180e-001, 1.12450695e+000, 1.04676396e-001 ]
      - [ -5.70214689e-001, 9.37538370e-002, -2.21209034e-001,
          3.03408299e-002, 7.67199576e-001, 3.31424266e-001 ]
      - [ -2.21526146e+000, -2.17658114e+000, -3.97354150e+000,
          -7.55382180e-001, 4.93128681e+000, 3.40217066e+000 ]
      - [ -1.45525706e+000, 2.93644339e-001, 1.00122416e+000,
          8.97980750e-001, 2.96271563e-001, 5.87163568e-001 ]
      - [ 1.37954950e+000, -7.11921334e-001, -8.26383710e-001,
          -7.55382180e-001, -9.24980864e-002, -1.26061332e+000 ]
      - [ -2.56851673e-001, -1.28869009e+000, -8.35038722e-001,
          -7.55382180e-001, 1.11445260e+000, 2.87656695e-001 ]
      - [ -1.09216917e+000, 3.61375883e-002, 8.88916433e-001,
          2.05748156e-001, 1.29159868e-001, 3.54980946e-001 ]
      - [ -5.78928649e-001, -5.55955827e-001, 1.23463893e+000,
          7.22382544e-003, -9.74907339e-001, 6.36995018e-001 ]
      - [ -1.84051454e+000, 1.59178153e-001, -2.53021717e-001,
          -7.55382180e-001, 1.23118341e+000, 2.21049738e+000 ]
      - [ -9.19449151e-001, 3.98300976e-001, 7.15885043e-001,
          -3.86236489e-001, -3.67147326e-001, 1.34169972e+000 ]
      - [ -1.90078712e+000, 1.63723218e+000, -2.25980595e-001,
          2.43237376e+000, 1.61719108e+000, 1.51508617e+000 ]
      - [ -7.91022956e-001, 7.77621567e-002, -1.39269829e-001,
          7.78725624e-001, 4.75408167e-001, 1.23818207e+000 ]
      - [ -1.80813849e+000, -4.65101600e-001, -8.87113869e-001,
          8.39971840e-001, 1.42670321e+000, 3.09344006e+000 ]
      - [ -1.47536206e+000, 1.40202951e+000, 1.32072675e+000,
          1.96937013e+000, -2.56311029e-001, 1.04751658e+000 ]
      - [ -8.80632401e-001, -2.13512078e-001, -1.39144689e-001,
          -7.55382180e-001, 7.67600834e-001, 8.47663879e-001 ]
      - [ -7.07720637e-001, -8.96732271e-001, -7.30293572e-001,
          -7.55382180e-001, 1.46143067e+000, 3.67522806e-001 ]
      - [ -1.89755356e+000, 2.33001083e-001, -1.10831574e-001,
          -5.69888651e-001, 1.15432262e+000, 2.17980790e+000 ]
      - [ -1.84794343e+000, 2.62872958e+000, 1.99836934e+000,
          2.55486608e+000, -5.72793841e-001, 1.05448616e+000 ]
      - [ -3.62553090e-001, -4.58544672e-001, 9.40054506e-002,
          -7.55382180e-001, 3.99300456e-001, -1.08034626e-001 ]
      - [ 9.11385059e-001, -9.83755112e-001, -1.01390302e+000,
          -7.55382180e-001, 5.49763381e-001, -9.46650565e-001 ]
      - [ -4.34878975e-001, -2.88721561e-001, -3.29550207e-001,
          -2.04505786e-001, 5.92404187e-001, 6.20203137e-001 ]
      - [ -1.71094465e+000, -1.23426886e-002, 8.07973683e-001,
          1.36886191e+000, 7.12735295e-001, 7.26878881e-001 ]
      - [ -4.67007101e-001, 3.00074548e-001, -1.89204246e-001,
          7.50778675e-001, 7.43412912e-001, 7.13118687e-002 ]
      - [ 3.60167176e-001, -5.47799349e-001, -1.34193659e+000,
          -7.55382180e-001, 9.69838679e-001, 3.09676170e-001 ]
      - [ -1.36157465e+000, 1.36346507e+000, 1.39831674e+000,
          1.83492362e+000, -5.32703042e-001, 1.18000770e+000 ]
      - [ -9.80178714e-001, -5.17316699e-001, 1.58238506e+000,
          1.00523376e+000, -7.12195635e-001, 2.74847597e-001 ]
      - [ -1.05509925e+000, 6.46733195e-002, -4.13943410e-001,
          -7.55382180e-001, 9.89491463e-001, 1.38612628e+000 ]
      - [ -8.40563774e-001, -8.88457596e-001, -7.89902687e-001,
          -7.55382180e-001, 1.28386426e+000, 1.15130365e+000 ]
      - [ 4.77522165e-001, -2.16158241e-001, -2.74784029e-001,
          -7.55382180e-001, 7.68219009e-002, -6.25061214e-001 ]
      - [ -2.04622364e+000, 8.99385929e-001, 8.50877345e-001,
          1.68625605e+000, 8.02015722e-001, 1.17014802e+000 ]
      - [ -7.81230211e-001, -1.85715601e-001, 6.98902309e-001,
          -7.55382180e-001, 2.95939624e-001, -2.74089038e-001 ]
      - [ -3.18642557e-002, -6.29427433e-002, 1.22172117e+000,
          4.26961988e-001, -1.30615127e+000, 2.23825835e-002 ]
      - [ -2.01318836e+000, -6.17504060e-001, 8.74863863e-001,
          -7.55382180e-001, 1.05209315e+000, 5.59046090e-001 ]
      - [ -7.81029761e-001, 3.49780023e-001, 7.11514235e-001,
          -1.70393407e-001, -3.09046358e-001, 9.19960797e-001 ]
      - [ -1.45301178e-001, 7.88474798e-001, 2.10782456e+000,
          1.35186124e+000, -1.26452327e+000, -1.80561352e+000 ]
      - [ -1.70140123e+000, 1.64622986e+000, 3.57832730e-001,
          1.78563142e+000, 1.26711750e+000, 5.61229050e-001 ]
      - [ 4.46432829e-001, -8.73546302e-001, -1.23392463e+000,
          -7.55382180e-001, 9.71697152e-001, -1.54379681e-001 ]
      - [ -3.46478596e-002, -1.21926808e+000, -1.24582875e+000,
          -7.55382180e-001, 1.45740724e+000, 7.95557722e-003 ]
      - [ -5.56481183e-001, -1.49196196e+000, -6.19078398e-001,
          -7.55382180e-001, 1.32562101e+000, 5.52851036e-002 ]
      - [ -1.55419052e+000, 1.57473874e+000, -9.23616961e-002,
          2.17928410e+000, 1.30764544e+000, 1.12493074e+000 ]
      - [ -1.36858726e+000, 5.73616147e-001, 3.71268764e-003,
          8.85008514e-001, 7.16918051e-001, 1.70111525e+000 ]
      - [ -2.05110550e+000, 2.88716018e-001, 7.07520366e-001,
          1.55565882e+000, 8.25769424e-001, 1.43218279e+000 ]
      - [ -4.12004173e-001, -1.08467805e+000, -1.10116506e+000,
          -7.55382180e-001, 1.44512534e+000, 5.67151070e-001 ]
      - [ -1.55182230e+000, 4.89631325e-001, 1.13440943e+000,
          2.24863505e+000, 2.79438704e-001, 5.48104942e-001 ]
      - [ -6.41480908e-002, -1.40439439e+000, -1.29954457e+000,
          -7.55382180e-001, 1.46387017e+000, 1.86109468e-001 ]
      - [ -2.15160325e-001, -1.24445379e+000, -6.92400038e-001,
          -7.55382180e-001, 1.17049253e+000, -2.47439340e-001 ]
      - [ -1.74965775e+000, 4.93143463e+000, 1.98247194e+000,
          9.89430547e-001, -1.01573813e+000, 1.74903321e+000 ]
      - [ -1.23441076e+000, 7.92975724e-001, -2.72714317e-001,
          9.22563374e-001, 1.04800189e+000, 1.34875572e+000 ]
      - [ -1.36384308e+000, 3.11102867e-001, 1.31540644e+000,
          1.22936881e+000, 1.14019871e-001, 7.33406022e-002 ]
      - [ -1.77771676e+000, 3.86782914e-001, -3.61491628e-002,
          1.68931425e+000, 1.73038590e+000, 6.37834787e-001 ]
      - [ 4.13776077e-002, -6.82146311e-001, -8.82206261e-001,
          -7.55382180e-001, 8.94012511e-001, 1.53847083e-001 ]
      - [ -8.56528103e-001, -4.35372382e-001, -3.52318048e-001,
          -7.55382180e-001, 7.22565055e-001, 1.35444963e+000 ]
      - [ 7.97913149e-002, -1.72750250e-001, 6.43996358e-001,
          3.03408299e-002, -8.94994974e-001, 2.30165616e-001 ]
      - [ -1.04661596e+000, 1.05252600e+000, 6.34978473e-001,
          2.01432276e+000, 6.29670992e-002, 9.39200401e-001 ]
      - [ -4.80812103e-001, -1.65955055e+000, -1.58224738e+000,
          -7.55382180e-001, 1.77294350e+000, 1.13394654e+000 ]
      - [ -7.19953775e-001, -4.78257686e-001, -2.21065953e-001,
          -7.55382180e-001, 5.24994969e-001, 1.16031206e+000 ]
      - [ -2.04883337e+000, 2.75301242e+000, 2.57551098e+000,
          2.24053025e+000, -9.73706007e-001, 1.07461071e+000 ]
      - [ -3.77290487e-001, -1.45130146e+000, 9.20861438e-002,
          -7.55382180e-001, 4.34617788e-001, -1.41176701e-001 ]
      - [ -1.81177402e+000, 2.09011960e+000, 7.31555343e-001,
          1.42931712e+000, 3.41325670e-001, 1.83683455e+000 ]
      - [ -4.00708646e-001, -6.62024260e-001, -4.41196948e-001,
          -7.55382180e-001, 7.81625867e-001, 4.07553375e-001 ]
      - [ -5.53686798e-001, 2.37075146e-002, 4.46250647e-001,
          9.15870517e-002, -7.71883056e-002, 5.16557455e-001 ]
      - [ -1.84592736e+000, 9.98772383e-001, 2.15663338e+000,
          2.55486608e+000, -6.61213398e-001, 8.91945481e-001 ]
      - [ -1.94651473e+000, -1.35801032e-001, 5.30079663e-001,
          -7.55382180e-001, 1.15542197e+000, 9.36078250e-001 ]
      - [ -1.89500332e+000, 4.31148005e+000, 7.06926346e-001,
          2.26364732e+000, 7.69604921e-001, 1.21813273e+000 ]
      - [ -1.98239696e+000, -5.36075592e-001, -2.72804081e-001,
          -5.69888651e-001, 1.58345938e+000, 1.84558797e+000 ]
      - [ 3.00514132e-001, -6.48054838e-001, -6.59476995e-001,
          -7.55382180e-001, 6.41971409e-001, -4.61572230e-001 ]
      - [ -9.03209925e-001, 2.98478633e-001, -5.41364312e-001,
          -5.69888651e-001, 1.16637945e+000, 9.78260875e-001 ]
      - [ 1.97850615e-001, -5.42434514e-001, -1.39124215e+000,
          -7.55382180e-001, 1.33868706e+000, 4.47105728e-002 ]
      - [ -7.57771730e-001, -3.93465430e-001, 1.39307332e+000,
          1.08171940e+000, -8.07030976e-001, 3.64928961e-001 ]
      - [ -2.26676315e-001, -1.29005909e+000, -1.23266566e+000,
          -7.55382180e-001, 1.42706430e+000, 4.81741637e-001 ]
      - [ -1.68972385e+000, -2.97861308e-001, -4.57241178e-001,
          -1.70393407e-001, 1.55500329e+000, 1.69206798e+000 ]
      - [ -7.19282210e-001, -1.48098791e+000, -1.57330406e+000,
          -7.55382180e-001, 1.88879061e+000, 1.39793777e+000 ]
      - [ -7.02299774e-001, 4.45167720e-001, 7.27903783e-001,
          2.39463657e-001, -4.20771062e-001, 9.29072022e-001 ]
      - [ -6.46988809e-001, -6.41342998e-001, 5.43164313e-001,
          9.15870517e-002, -1.07061878e-001, 5.76815903e-001 ]
      - [ -1.05319440e+000, -2.05172896e+000, -4.26731586e+000,
          -7.55382180e-001, 4.28559303e+000, 3.17078757e+000 ]
      - [ -2.16926903e-001, 4.37941290e-002, 3.42480421e-001,
          2.66994387e-001, -3.86005789e-001, 5.90544224e-001 ]
      - [ -1.39651322e+000, -1.06066918e+000, -8.94105732e-001,
          -7.55382180e-001, 1.80750394e+000, 1.51422882e+000 ]
      - [ -2.53744334e-001, -1.23695683e+000, -1.56526208e+000,
          -7.55382180e-001, 1.55458820e+000, 1.03711963e+000 ]
      - [ -1.30371869e+000, -6.61520123e-001, 3.43875974e-001,
          -7.55382180e-001, 5.10075629e-001, 1.24195540e+000 ]
      - [ 3.62240016e-001, -9.80611145e-001, -1.36300921e+000,
          -7.55382180e-001, 1.34338534e+000, -4.21370357e-001 ]
      - [ -1.40639567e+000, -1.76018439e-002, 1.03128982e+000,
          1.72744346e+000, 2.48249978e-001, 5.10679305e-001 ]
      - [ -6.94113195e-001, 8.27269793e-001, 3.74220848e+000,
          1.22246146e+000, -1.97384655e+000, -2.63794327e+000 ]
      - [ -5.00263393e-001, -9.13192153e-001, -5.05059600e-001,
          -7.55382180e-001, 1.03881502e+000, 2.55156726e-001 ]
      - [ -1.82177198e+000, 1.38919258e+000, -1.00276833e-002,
          2.20240092e+000, 1.74919581e+000, 6.37670934e-001 ]
      - [ -7.46420026e-001, 7.74369776e-001, 3.06172800e+000,
          1.29566169e+000, -1.27156699e+000, -2.41767979e+000 ]
      - [ -8.65024686e-001, -1.41403210e+000, -2.88195103e-001,
          -7.55382180e-001, 7.52639294e-001, 1.17131603e+000 ]
      - [ -1.84001803e+000, 1.41209662e+000, 1.04396701e+000,
          2.24863505e+000, 1.92765310e-001, 1.53252637e+000 ]
      - [ -1.31705940e+000, 1.77254868e+000, 7.85528362e-001,
          1.75866520e+000, -5.56092896e-002, 1.44871807e+000 ]
      - [ -1.45112503e+000, -2.24502563e+000, -5.39847946e+000,
          -7.55382180e-001, 5.99279594e+000, 2.94029665e+000 ]
      - [ -1.99426138e+000, 2.62083888e+000, 1.34453475e+000,
          1.06006801e+000, 5.08099012e-002, 1.50918341e+000 ]
      - [ 1.60590664e-001, -6.45638883e-001, -8.56903851e-001,
          -7.55382180e-001, 8.08718622e-001, -1.09264804e-002 ]
      - [ -1.69416177e+000, -4.50056978e-002, 7.15306997e-001,
          1.26749802e+000, 2.55927622e-001, 1.79176593e+000 ]
      - [ -1.43654764e+000, 1.33286595e+000, 5.54943442e-001,
          1.80746710e+000, 6.33300543e-001, 8.31049442e-001 ]
      - [ -8.37072611e-001, -8.09442222e-001, -1.00526083e+000,
          -7.55382180e-001, 1.47974694e+000, 1.22322106e+000 ]
      - [ -7.28846610e-001, -1.25958189e-001, 2.62285066e+000,
          7.17479408e-001, -1.10287642e+000, -1.83018553e+000 ]
      - [ -7.59164751e-001, -3.95389259e-001, 7.98295364e-002,
          -7.55382180e-001, 6.24280691e-001, 3.81217331e-001 ]
      - [ -1.11178115e-001, -9.85885024e-001, -1.13610351e+000,
          -7.55382180e-001, 1.40636492e+000, 3.89772989e-002 ]
      - [ -7.76462615e-001, -5.24971426e-001, 1.53697956e+000,
          1.74622083e+000, -1.03787637e+000, 5.56908548e-001 ]
      - [ 3.81203175e-001, -5.26890039e-001, -9.35675919e-001,
          -7.55382180e-001, 8.37415397e-001, -4.17298496e-001 ]
      - [ -9.26871002e-001, 6.83119357e-001, -1.39674932e-001,
          1.51752961e+000, 8.66774082e-001, 7.51631618e-001 ]
      - [ -1.85002118e-001, -4.35461730e-001, 6.41420007e-001,
          2.94465899e-001, -7.89297223e-001, 6.60319209e-001 ]
      - [ -9.69335198e-001, 1.50130618e+000, 4.03345776e+000,
          2.14115477e+000, -2.01871395e+000, -2.49145603e+000 ]
      - [ -1.21882474e+000, -3.03812683e-001, 7.13556707e-001,
          9.15870517e-002, -8.16400815e-003, 1.29344809e+000 ]
      - [ -1.35973239e+000, -3.79584283e-002, 1.89089644e+000,
          1.51368034e+000, -6.48541808e-001, 3.47712427e-001 ]
      - [ 1.08917728e-001, -9.01596487e-001, -2.82997668e-001,
          -7.55382180e-001, -4.35112119e-002, 5.43916523e-001 ]
      - [ -5.79933465e-001, -4.45138574e-001, 1.05027521e+000,
          7.17479408e-001, -5.55313885e-001, 1.99282601e-001 ]
      - [ -1.48076940e+000, -1.10290736e-001, -1.09046805e+000,
          -2.65752017e-001, 2.05182481e+000, 1.62290454e+000 ]
      - [ -2.09085488e+000, 2.87601328e+000, 1.34017396e+000,
          1.07379377e+000, 3.27133536e-001, 1.17878926e+000 ]
      - [ -1.08498704e+000, 7.35687762e-002, -3.09484869e-001,
          3.78829151e-001, 1.20113099e+000, 7.98474491e-001 ]
      - [ -1.86406338e+000, 4.20345157e-001, 6.24097168e-001,
          3.04469556e-001, 8.01687002e-001, 1.26368785e+000 ]
      - [ -8.27384055e-001, 2.05880880e+000, 3.07107353e+000,
          2.11497951e+000, -1.50987768e+000, -1.75546706e+000 ]
      - [ -2.00213599e+000, 3.35823536e+000, 8.41089249e-001,
          1.52435291e+000, 8.94372642e-001, 9.16615784e-001 ]
      - [ -4.51146252e-002, -7.90023506e-001, -5.27096152e-001,
          -7.55382180e-001, 7.21303403e-001, -1.02608040e-001 ]
      - [ -3.67201418e-001, -7.57965147e-001, -8.17035973e-001,
          -7.55382180e-001, 1.01577759e+000, 7.00810671e-001 ]
      - [ 2.21536651e-001, -6.20812535e-001, 3.12460512e-001,
          -3.86236489e-001, -5.15324116e-001, -1.34952098e-001 ]
      - [ -3.07303965e-001, -6.18149996e-001, -8.79004359e-001,
          -7.55382180e-001, 1.29101145e+000, 1.42270505e-001 ]
      - [ -1.53465056e+000, 5.86832464e-001, 4.19066459e-001,
          1.10727243e-001, 7.74890184e-001, 1.05156171e+000 ]
      - [ 1.88813537e-001, -7.64304876e-001, -1.27808309e+000,
          -7.55382180e-001, 1.16535795e+000, 1.61722824e-001 ]
      - [ -8.28534126e-001, -5.99644721e-001, 8.89342874e-002,
          -7.55382180e-001, 3.01682293e-001, 1.16889608e+000 ]
      - [ 2.44067416e-001, -4.61966693e-001, -7.17008948e-001,
          -7.55382180e-001, 7.23041594e-001, -3.58707756e-001 ]
      - [ 3.38656455e-001, -7.06400514e-001, 7.32231855e-001,
          -7.55382180e-001, -1.07031059e+000, -2.55704045e-001 ]
      - [ -4.44027543e-001, 1.12257712e-001, 8.29735458e-001,
          4.40075368e-001, -4.96611804e-001, 2.52990305e-001 ]
      - [ -9.60661247e-002, -1.86229378e-001, -2.04511583e-001,
          -2.47839559e-002, 3.61160785e-001, 1.92811936e-002 ]
      - [ -3.71333748e-001, 2.76019365e-001, 2.21928787e+000,
          4.72494513e-001, -1.02297080e+000, -1.98051202e+000 ]
      - [ -1.09235859e+000, -5.86797535e-001, 6.37911677e-001,
          8.59624326e-001, 1.97336590e-003, 1.15728641e+000 ]
      - [ -8.41395184e-002, -9.27877545e-001, -8.45301807e-001,
          -7.55382180e-001, 9.26684260e-001, 2.95927942e-001 ]
      - [ -2.21850419e+000, 1.43447971e+000, 1.27047265e+000,
          1.45628333e+000, 1.19459040e-001, 1.99699605e+000 ]
      - [ -1.20994937e+000, 1.03559446e+000, 1.23079884e+000,
          1.53254175e+000, -7.15388715e-001, 1.56902373e+000 ]
      - [ -1.48018265e+000, 2.71172333e+000, 3.93469191e+000,
          2.30988121e+000, -1.88591504e+000, -1.28903782e+000 ]
      - [ -9.29345846e-001, 1.62940347e+000, 1.98939836e+000,
          2.07990861e+000, -1.31670690e+000, 4.80781913e-001 ]
      - [ -1.08882868e+000, 9.22284126e-001, 8.27348948e-001,
          1.39375567e+000, -3.39452416e-001, 1.42190695e+000 ]
      - [ -4.33957398e-001, -7.19423473e-001, -4.43576902e-001,
          -7.55382180e-001, 9.79838490e-001, 8.54278654e-002 ]
      - [ -2.06844568e+000, 3.13597155e+000, 1.25881040e+000,
          2.05373335e+000, 3.09892088e-001, 1.33472979e+000 ]
      - [ -6.70192420e-001, 7.11186111e-001, 7.24285722e-001,
          9.26902950e-001, -4.24196124e-001, 8.70085061e-001 ]
      - [ -1.22744298e+000, 4.21804786e-001, 2.96144724e-001,
          1.45934153e+000, 5.69975913e-001, 1.05911267e+000 ]
      - [ -3.10263783e-002, -8.29438686e-001, 1.75437868e-001,
          -7.55382180e-001, -3.63377601e-001, 4.82404023e-001 ]
      - [ -1.49648595e+000, -2.74582326e-001, 1.96110070e-001,
          1.44501925e-001, 5.93594372e-001, 1.80654359e+000 ]
      - [ -5.36773562e-001, -4.76928689e-002, 1.36976361e-001,
          -7.55382180e-001, 2.05733016e-001, 5.94416082e-001 ]
      - [ -2.00948477e+000, 3.47196722e+000, 1.47133899e+000,
          1.83186543e+000, 2.41641939e-001, 9.01301742e-001 ]
      - [ -8.87416363e-001, -2.31386805e+000, -5.31761217e+000,
          -7.55382180e-001, 5.83596611e+000, 2.03648686e+000 ]
      - [ -9.49423194e-001, 2.30122685e+000, 2.85101461e+000,
          2.11803770e+000, -1.29712701e+000, -1.40110195e+000 ]
      - [ 9.27183092e-001, -2.70969182e-001, -8.52745533e-001,
          -7.55382180e-001, 2.93861121e-001, -8.36462498e-001 ]
      - [ -1.91576862e+000, 3.15488696e+000, 1.12318826e+000,
          2.26364732e+000, 4.51015115e-001, 1.01752055e+000 ]
      - [ -1.42825806e+000, 2.26500654e+000, 3.62397695e+000,
          2.01866221e+000, -1.56031644e+000, -1.39618611e+000 ]
      - [ -1.21949005e+000, -1.94128424e-001, -1.48593009e-001,
          -7.55382180e-001, 7.96655416e-001, 1.55092382e+000 ]
      - [ -1.73268795e+000, -2.36085296e+000, -6.23037672e+000,
          -7.55382180e-001, 6.67795897e+000, 3.84249973e+000 ]
      - [ -2.10851407e+000, 8.63662899e-001, 5.83342552e-001,
          1.81180668e+000, 8.49280238e-001, 1.76269031e+000 ]
      - [ -1.42653096e+000, -2.58915443e-002, 4.60693054e-002,
          8.59624326e-001, 1.45426297e+000, 2.64868796e-001 ]
      - [ -7.78574347e-001, 1.91826534e+000, 4.43934107e+000,
          2.06489635e+000, -2.30412626e+000, -3.29696798e+000 ]
      - [ -1.48221827e+000, 8.71793628e-001, -4.51190740e-001,
          1.85804069e+000, 1.54418170e+000, 1.26901829e+000 ]
      - [ 2.85175264e-001, -5.03892183e-001, -7.12379336e-001,
          -7.55382180e-001, 7.16675937e-001, -4.55758214e-001 ]
      - [ -8.74788940e-001, 1.08278489e+000, 3.56397724e+000,
          1.54064655e+000, -1.74708819e+000, -2.24502420e+000 ]
      - [ -2.70141304e-001, -1.18233263e+000, -8.93523574e-001,
          -7.55382180e-001, 1.26048005e+000, 1.52248725e-001 ]
      - [ -6.76908791e-001, 5.92666149e-001, 7.01012969e-001,
          2.20094789e-002, -3.01278979e-001, 6.88340604e-001 ]
      - [ -1.14716363e+000, -4.95381176e-001, 7.40649164e-001,
          -7.55382180e-001, 4.61727679e-001, 1.34322643e-001 ]
      - [ -1.12534128e-001, -4.84675676e-001, -5.01219667e-002,
          -7.55382180e-001, 5.95940575e-002, 3.24410439e-001 ]
      - [ -1.40173113e+000, 2.44547129e-001, 5.47211766e-001,
          2.03367448e+000, 4.05657351e-001, 1.22559309e+000 ]
      - [ -2.10158080e-001, -1.00220346e+000, 1.02653158e+000,
          -3.86236489e-001, -9.60580289e-001, 1.95435762e-001 ]
      - [ -2.70141304e-001, -9.56532836e-001, -6.13870740e-001,
          -7.55382180e-001, 1.08293653e+000, -1.18755415e-001 ]
      - [ -1.01300406e+000, -8.00230205e-001, 7.59793699e-001,
          -5.69888651e-001, 1.52936295e-001, 4.10179734e-001 ]
      - [ 8.44479442e-001, -1.08242989e+000, -1.50144386e+000,
          -7.55382180e-001, 9.55687582e-001, -4.60043997e-001 ]
      - [ -1.18531573e+000, -5.29731251e-002, -8.18841755e-001,
          8.82741332e-001, 1.13978279e+000, 2.24350238e+000 ]
      - [ -1.43151283e+000, 1.07310939e+000, 1.78130424e+000,
          1.61690497e+000, -2.59817094e-001, -2.94013973e-002 ]
      - [ -6.61247313e-001, 3.42099756e-001, 3.95883989e+000,
          1.34574485e+000, -2.10337639e+000, -2.94140744e+000 ]
      - [ -8.05917621e-001, -3.82070929e-001, 5.26369438e-002,
          -7.55382180e-001, 4.51471835e-001, 8.95919561e-001 ]
      - [ -2.90070564e-001, -6.35679841e-001, -6.70539916e-001,
          -7.55382180e-001, 1.01398933e+000, 1.96696311e-001 ]
      - [ -1.42937943e-001, -8.89496684e-001, -8.72858226e-001,
          -7.55382180e-001, 1.14656353e+000, 4.45228107e-002 ]
      - [ -8.31651449e-001, 1.75641549e+000, 1.95700240e+000,
          1.70126820e+000, -1.40621269e+000, 5.02879858e-001 ]
      - [ -1.32186258e+000, 1.01179135e+000, 1.68164897e+000,
          9.85881984e-001, -5.54176927e-001, 5.24068892e-001 ]
      - [ -5.16890347e-001, -2.46732295e-001, 7.22928226e-001,
          -5.69888651e-001, 1.07654007e-002, -3.67353022e-001 ]
      - [ -1.64041257e+000, 5.60504735e-001, 6.39537930e-001,
          6.58436477e-001, 7.94942379e-001, 7.69564807e-001 ]
      - [ -1.97216141e+000, 1.31565416e+000, 8.53925765e-001,
          1.03389275e+000, 3.85868430e-001, 1.82806337e+000 ]
      - [ -5.00931978e-001, -1.19158459e+000, -8.85380745e-001,
          -7.55382180e-001, 1.33534062e+000, 5.06111324e-001 ]
      - [ -7.47721910e-001, -8.53077546e-002, 5.59415042e-001,
          -5.69888651e-001, -1.13635913e-001, 7.85379469e-001 ]
      - [ -1.18477821e+000, -8.38130713e-001, -6.85417771e-001,
          -7.55382180e-001, 1.33858740e+000, 1.55496550e+000 ]
      - [ -7.75684476e-001, 1.08798683e+000, 1.55615652e+000,
          1.22246146e+000, -1.09008420e+000, 6.18178070e-001 ]
      - [ 8.58004332e-001, -7.78795779e-001, -6.78302050e-001,
          -7.55382180e-001, 2.31837556e-001, -9.49249029e-001 ]
      - [ -7.49663651e-001, -1.01020420e+000, 1.06120169e+000,
          2.05748156e-001, 6.44643679e-002, -6.81365252e-001 ]
      - [ 1.87552139e-001, -1.24330342e+000, -1.09240794e+000,
          -7.55382180e-001, 1.07364976e+000, -7.64904320e-002 ]
      - [ -1.04695618e+000, -6.15498900e-001, -5.71732819e-001,
          -7.55382180e-001, 1.28237033e+000, 1.12462509e+000 ]
      - [ -1.96507394e+000, 2.73668432e+000, -1.03305966e-001,
          2.11803770e+000, 1.61203897e+000, 1.39984059e+000 ]
      - [ -1.95189881e+000, 4.80377769e+000, 4.22948790e+000,
          7.56399691e-001, -1.82953525e+000, -9.11789238e-001 ]
      - [ -1.95485747e+000, 1.01116359e+000, 1.11064959e+000,
          1.01817358e+000, 2.35593364e-001, 1.55097091e+000 ]
      - [ -1.83490768e-001, -4.66677070e-001, -7.14509308e-001,
          -7.55382180e-001, 1.04457104e+000, -1.30066629e-002 ]
      - [ -8.10857892e-001, -9.11541641e-001, -1.17678714e+000,
          -7.55382180e-001, 1.82368612e+000, 8.50416183e-001 ]
      - [ 2.95556098e-001, -8.49458158e-001, -6.62806809e-001,
          -7.55382180e-001, 1.25451609e-001, 6.28716409e-001 ]
      - [ -4.06922353e-003, 1.07719839e+000, 3.02446628e+000,
          1.19628620e+000, -1.85100102e+000, -3.06717634e+000 ]
      - [ -1.85628569e+000, 3.04716730e+000, 9.03522909e-001,
          1.47811890e+000, 5.50091803e-001, 1.15681100e+000 ]
      - [ -3.19536924e-001, 5.43000221e-001, 2.51730824e+000,
          8.29599917e-001, -1.32149887e+000, -2.17540908e+000 ]
      - [ -1.88168967e+000, 4.93891239e-001, 1.31524897e+000,
          1.21001709e+000, 4.70598638e-001, 5.03284872e-001 ]
      - [ -6.75934911e-001, 3.74547869e-001, 2.53957331e-001,
          -5.69888651e-001, 2.35523120e-001, 5.92313707e-001 ]
      - [ -1.29004169e+000, 5.02992511e-001, 1.19682193e+000,
          2.10302544e+000, -2.41191998e-001, 8.72842252e-001 ]
      - [ -1.67187011e+000, -2.07579541e+000, -1.79094052e+000,
          -7.55382180e-001, 3.08898139e+000, 1.44211817e+000 ]
      - [ -1.29439938e+000, -8.57852995e-001, -5.95930398e-001,
          -7.55382180e-001, 1.25631642e+000, 1.75825715e+000 ]
      - [ -1.34941411e+000, -5.21364152e-001, 3.76142710e-001,
          -3.86236489e-001, 4.65898216e-001, 1.35973036e+000 ]
      - [ -2.81247109e-001, -3.21162492e-001, -4.13780570e-001,
          -7.55382180e-001, 7.00427115e-001, 2.35473201e-001 ]
      - [ -2.00332570e+000, 3.28926325e-001, 2.54698962e-001,
          -5.69888651e-001, 1.23766029e+000, 1.46743155e+000 ]
      - [ 5.69997966e-001, -8.49011481e-001, -9.01537478e-001,
          -7.55382180e-001, 6.84196711e-001, -6.41200125e-001 ]
      - [ -3.29068601e-002, -4.58725601e-001, -5.26425660e-001,
          -7.55382180e-001, 3.50936413e-001, 6.28435910e-001 ]
      - [ -1.15902925e+000, -1.24076617e+000, -1.31300044e+000,
          -7.55382180e-001, 2.01727247e+000, 1.50283635e+000 ]
      - [ -5.81499755e-001, -4.93503571e-001, 2.73324132e-001,
          -7.55382180e-001, 8.09240043e-002, 6.46092355e-001 ]
      - [ -1.42009509e+000, -7.53017962e-001, -9.81593251e-001,
          -7.55382180e-001, 2.05962348e+000, 1.24865377e+000 ]
      - [ -1.21830511e+000, 1.78849363e+000, 1.22200632e+000,
          1.57443619e+000, -6.85232103e-001, 1.54633689e+000 ]
      - [ -7.53494680e-001, 4.87659574e-002, -6.28198450e-003,
          -3.86236489e-001, 5.99915504e-001, 6.08263731e-001 ]
      - [ -8.32352042e-001, -5.46704829e-001, 5.74200451e-001,
          -7.55382180e-001, 5.28206110e-001, -3.49923640e-001 ]
      - [ -7.76520014e-001, 2.08681479e-001, 9.86539602e-001,
          1.50557554e+000, -6.25690699e-001, 9.41331685e-001 ]
      - [ -1.34983575e-002, -3.57791060e-003, 5.61292693e-002,
          -7.55382180e-001, 3.86592954e-001, -8.28352153e-001 ]
      - [ -1.20109546e+000, 4.99709040e-001, 1.40582073e+000,
          1.30517876e+000, -4.62003320e-001, 6.62854195e-001 ]
      - [ 5.83796620e-001, -6.81753218e-001, -1.19163585e+000,
          -7.55382180e-001, 8.59514236e-001, -3.54426473e-001 ]
      - [ -2.07260203e+000, 3.86580515e+000, 1.19876635e+000,
          1.89311171e+000, 3.89181942e-001, 1.31258261e+000 ]
      - [ -5.60066104e-002, 5.09833455e-001, 9.16489139e-002,
          9.83809590e-001, 4.06770818e-002, -9.60755721e-002 ]
      - [ -1.85327029e+000, -1.55193651e+000, 8.55599761e-001,
          -2.04505786e-001, 3.62939745e-001, 1.62055838e+000 ]
      - [ -1.64358437e+000, 3.73744428e-001, 1.15961313e+000,
          6.79962039e-001, -2.18127053e-002, 1.29212105e+000 ]
      - [ -1.68313909e+000, -8.15379798e-001, 3.10870469e-001,
          -7.55382180e-001, 1.30239856e+000, 5.51951826e-001 ]
      - [ -1.04678941e+000, 2.82902431e+000, 4.66219568e+000,
          1.47129560e+000, -2.37258244e+000, -2.95874643e+000 ]
      - [ 5.85082397e-002, -8.04555774e-001, -8.32452893e-001,
          -7.55382180e-001, 1.00431764e+000, -2.28473514e-001 ]
      - [ -1.06457722e+000, 1.22650497e-001, -4.70805407e-001,
          -3.86236489e-001, 1.39208055e+000, 7.22361147e-001 ]
      - [ -1.70608592e+000, -1.89694870e+000, -9.00298357e-001,
          -5.69888651e-001, 1.53376555e+000, 2.70525527e+000 ]
      - [ -1.74882770e+000, 2.54750043e-001, 6.94129467e-002,
          -7.55382180e-001, 8.93937528e-001, 2.00913620e+000 ]
      - [ -7.80020356e-001, 1.01694667e+000, -2.77128071e-001,
          1.41310751e+000, 9.32615101e-001, 5.94626367e-001 ]
      - [ 4.32360508e-002, -1.54321861e+000, -9.79693115e-001,
          -7.55382180e-001, 1.17192376e+000, -1.98458195e-001 ]
      - [ -7.51900077e-001, 8.19200352e-002, 3.28135699e-001,
          -7.55382180e-001, 1.37514234e-001, 7.99184740e-001 ]
      - [ 2.80826062e-001, -5.27196944e-001, -9.23417032e-001,
          -7.55382180e-001, 1.00648439e+000, -5.53696692e-001 ]
      - [ 7.46254086e-001, -7.77649105e-001, -8.04901063e-001,
          -7.55382180e-001, 4.32658166e-001, -7.84428537e-001 ]
      - [ -1.03720999e+000, 1.48666263e-001, 9.58061814e-001,
          1.74245560e+000, 1.54315755e-001, 2.91157681e-002 ]
      - [ -1.75307226e+000, -1.96192145e+000, -9.38706934e-001,
          -7.55382180e-001, 1.77428448e+000, 2.40493178e+000 ]
      - [ -4.18331355e-001, -1.39920548e-001, 1.09177977e-001,
          -7.55382180e-001, 7.87642226e-003, 7.85831869e-001 ]
      - [ -1.95474136e+000, 2.59667516e-001, 9.15402472e-001,
          1.29438031e+000, 6.59286141e-001, 1.12455249e+000 ]
      - [ -1.28517020e+000, 2.16795778e+000, 1.17212307e+000,
          2.14115477e+000, -6.48979247e-002, 5.63037455e-001 ]
      - [ -1.97662401e+000, 5.40873814e+000, 2.85373044e+000,
          1.60061133e+000, -1.44040155e+000, 1.25422525e+000 ]
      - [ -1.25024945e-001, 2.93033153e-001, 1.27901876e+000,
          -2.72827204e-002, -1.26763093e+000, 4.16897871e-002 ]
      - [ -2.95952205e-002, -9.13413048e-001, -2.25343511e-001,
          -7.55382180e-001, -2.64994893e-002, 7.05889583e-001 ]
      - [ -6.62421048e-001, 3.44118983e-001, -4.19348150e-001,
          1.21384919e-001, 8.98427665e-001, 7.15574563e-001 ]
      - [ -2.06368423e+000, 2.18940854e+000, 1.62857270e+000,
          1.91928685e+000, 1.84314683e-001, 8.01929951e-001 ]
      - [ -8.12391490e-002, -2.17270970e-001, -5.72026372e-001,
          -7.55382180e-001, 9.05372620e-001, -2.92475730e-001 ]
      - [ -1.52128533e-001, -6.44277692e-001, -7.95751214e-001,
          -7.55382180e-001, 9.17336702e-001, 3.59994709e-001 ]
      - [ -2.05754495e+000, 4.23763847e+000, 1.39338505e+000,
          2.14115477e+000, 3.88933897e-001, 8.76270890e-001 ]
      - [ -1.39982581e+000, 2.20113325e+000, 1.29446077e+000,
          2.40925670e+000, -2.48856202e-001, 9.22054470e-001 ]
      - [ -1.53507769e-001, 5.39675653e-001, 1.00506231e-001,
          5.49454451e-001, -3.10846251e-002, 2.63847977e-001 ]
      - [ -1.89946234e+000, 2.80606771e+000, 4.19558376e-001,
          1.45243406e+000, 1.06095505e+000, 1.25557125e+000 ]
      - [ -5.09351492e-001, 6.76793694e-001, 3.59709978e-001,
          9.36109960e-001, 2.38612995e-001, -3.46569009e-002 ]
      - [ -2.29946464e-001, 2.99406111e-001, 1.14771895e-001,
          5.33740759e-001, 8.26674327e-002, 1.79551020e-001 ]
      - [ 2.06871331e-001, -3.92333835e-001, -9.65325177e-001,
          -7.55382180e-001, 7.80832887e-001, 1.88039839e-001 ]
      - [ -6.34487271e-002, -3.79588634e-001, -6.58333719e-001,
          -7.55382180e-001, 9.33970809e-001, -1.95582539e-001 ]
      - [ 3.81465375e-001, -1.09970868e+000, -1.08082628e+000,
          -7.55382180e-001, 8.90202701e-001, -1.87475234e-001 ]
      - [ -1.79593015e+000, 2.92692900e+000, 3.90373874e+000,
          1.81180668e+000, -1.66101778e+000, -9.23292994e-001 ]
      - [ 3.09780747e-001, -1.00423014e+000, -5.62582731e-001,
          -7.55382180e-001, 3.79552394e-001, -1.66254580e-001 ]
      - [ -1.15227151e+000, 2.39232945e+000, 7.36992240e-001,
          2.20240092e+000, 1.06616192e-001, 8.65318179e-001 ]
      - [ -1.38335013e+000, -4.21582371e-001, -2.08338886e-001,
          -7.55382180e-001, 9.68454063e-001, 1.68658423e+000 ]
      - [ -1.75307226e+000, 2.38149077e-001, 7.82452285e-001,
          5.71869969e-001, 3.65325391e-001, 1.55816138e+000 ]
      - [ -1.83560348e+000, 1.98440468e+000, 1.65243196e+000,
          1.80874848e+000, -1.01870932e-001, 8.25232089e-001 ]
      - [ -1.23307538e+000, 1.02142191e+000, 1.04672253e+000,
          1.83492362e+000, 1.38116539e-001, 3.11475158e-001 ]
      - [ 2.19391733e-001, -7.53423989e-001, -7.66731918e-001,
          -7.55382180e-001, 8.66961598e-001, -4.81388628e-001 ]
      - [ -1.47625893e-001, -6.91589534e-001, -9.01456892e-001,
          -7.55382180e-001, 1.20440125e+000, 2.05721310e-003 ]
      - [ -1.23920393e+000, 1.29074097e+000, 1.01509929e+000,
          1.27560282e+000, -6.71462761e-003, 6.83279216e-001 ]
      - [ -7.75678277e-001, 3.76340598e-001, 6.88134372e-001,
          6.73813224e-001, -2.89313912e-001, 9.19552505e-001 ]
      - [ -4.17249262e-001, 1.41227019e+000, 1.16631007e+000,
          1.99248707e+000, -8.10004592e-001, 7.05644861e-002 ]
      - [ -1.05078995e+000, -7.93135583e-001, -5.97811937e-001,
          -7.55382180e-001, 1.06350434e+000, 1.62939751e+000 ]
      - [ -4.32716876e-001, -1.00740515e-001, 2.17569828e+000,
          -5.69888651e-001, -8.17192793e-001, -2.14774823e+000 ]
      - [ -1.21101570e+000, 1.50173962e+000, 4.66554689e+000,
          1.87305284e+000, -2.21871090e+000, -2.85855460e+000 ]
      - [ -3.08096468e-001, -5.35985641e-002, 6.94586694e-001,
          -4.47482705e-001, 9.74260494e-002, -9.78516161e-001 ]
      - [ -6.45748228e-002, -8.48084092e-001, 3.78646463e-001,
          -4.47482705e-001, 2.06410512e-001, -1.07336807e+000 ]
      - [ -5.38039207e-001, -1.93071976e-001, -5.37939556e-002,
          -5.69888651e-001, 6.99984014e-001, 1.99192688e-002 ]
      - [ -3.67709905e-001, -1.18912446e+000, -6.30760849e-001,
          -7.55382180e-001, 1.10023880e+000, 1.09423995e-001 ]
      - [ -3.89622748e-001, -1.15770996e+000, -1.14190745e+000,
          -7.55382180e-001, 1.09689236e+000, 1.31849074e+000 ]
      - [ -8.89202833e-001, 6.84568882e-001, 3.37989616e+000,
          1.55180955e+000, -1.48133194e+000, -2.33977723e+000 ]
      - [ -1.97493780e+000, 3.30779672e+000, 4.54412967e-001,
          1.97242832e+000, 1.14387476e+000, 1.17627621e+000 ]
      - [ -2.49713853e-001, -4.01046902e-001, -1.30954638e-001,
          -7.55382180e-001, 5.97649097e-001, -2.69489348e-001 ]
      - [ -1.24041426e+000, 1.59376931e+000, 1.21126807e+000,
          1.05373502e+000, -6.64251924e-001, 1.57680643e+000 ]
      - [ -1.47389901e+000, 2.35878086e+000, 9.36854124e-001,
          2.34801054e+000, 1.22266179e-002, 1.33101380e+000 ]
      - [ -8.55947435e-001, 7.22983658e-001, 1.06905794e+000,
          1.82681882e+000, -6.76587284e-001, 1.04435921e+000 ]
      - [ 3.72716188e-001, -6.19515657e-001, 1.75778959e-002,
          -7.55382180e-001, 1.24520428e-001, -1.14893639e+000 ]
      - [ 8.41509737e-003, -1.13688099e+000, -9.88414228e-001,
          -7.55382180e-001, 1.14414692e+000, -3.93137708e-002 ]
