%YAML:1.0
my_nb: !!opencv-ml-bayesian
   var_count: 6
   var_all: 6
   cls_labels: !!opencv-matrix
      rows: 1
      cols: 3
      dt: i
      data: [ 1, 2, 3 ]
   count:
      - !!opencv-matrix
         rows: 1
         cols: 6
         dt: i
         data: [ 91022, 91022, 91022, 91022, 91022, 91022 ]
      - !!opencv-matrix
         rows: 1
         cols: 6
         dt: i
         data: [ 13630, 13630, 13630, 13630, 13630, 13630 ]
      - !!opencv-matrix
         rows: 1
         cols: 6
         dt: i
         data: [ 1679, 1679, 1679, 1679, 1679, 1679 ]
   sum:
      - !!opencv-matrix
         rows: 1
         cols: 6
         dt: d
         data: [ 2.2557317930214107e+004, 3.6916276625465548e+002,
             1.5087496634554105e+002, 1.4776968672144413e+005,
             1.1271816896811128e+004, 1.8232464175835252e+004 ]
      - !!opencv-matrix
         rows: 1
         cols: 6
         dt: d
         data: [ 6.1480234494358301e+003, -8.5442817464151631e+001,
             -9.4318773297441624e+001, 1.8049516730695963e+004,
             1.4273631145060062e+003, 2.5303368789255619e+003 ]
      - !!opencv-matrix
         rows: 1
         cols: 6
         dt: d
         data: [ 6.4639099426567554e+002, -8.7760452452581376e+001,
             -2.9555437927469029e+001, 4.6742551326751709e+001,
             2.0780740028619766e+002, 3.2214121848344803e+002 ]
   productsum:
      - !!opencv-matrix
         rows: 6
         cols: 6
         dt: d
         data: [ 6.0184811630606437e+003, -1.2051189440049355e+002,
             1.1900712552168649e+001, 3.2191338398364740e+004,
             2.7750939571833378e+003, 4.4659892282460423e+003,
             -1.2051189440049355e+002, 3.7533355525040440e+002,
             8.9783925597133205e+001, 7.7109521218526916e+003,
             -2.5577876705033753e-001, 6.6150313492935439e+001,
             1.1900712552168649e+001, 8.9783925597133205e+001,
             5.2640332777730755e+001, 2.3479081811747274e+003,
             -1.5742812355270885e+001, 8.7327287304560794e+000,
             3.2191338398364740e+004, 7.7109521218526916e+003,
             2.3479081811747274e+003, 4.4637467236062424e+005,
             1.7153593595556013e+004, 2.9342252703558883e+004,
             2.7750939571833378e+003, -2.5577876705033753e-001,
             -1.5742812355270885e+001, 1.7153593595556013e+004,
             1.4228782819033565e+003, 2.2745269919074935e+003,
             4.4659892282460423e+003, 6.6150313492935439e+001,
             8.7327287304560794e+000, 2.9342252703558883e+004,
             2.2745269919074935e+003, 3.6756866893806309e+003 ]
      - !!opencv-matrix
         rows: 6
         cols: 6
         dt: d
         data: [ 2.8085623752129322e+003, -3.6432694392526166e+001,
             -4.1904949194130467e+001, 8.2998351165974036e+003,
             6.3962610570411653e+002, 1.1357689115514788e+003,
             -3.6432694392526166e+001, 8.8979507457443887e+000,
             2.4190956528419907e+000, 2.1211950271417763e+002,
             -1.0653731965967687e+001, -1.6888275530023762e+001,
             -4.1904949194130467e+001, 2.4190956528419907e+000,
             1.4876312065149184e+000, -4.0878679701040937e+001,
             -1.0648350200447274e+001, -1.7878301721581842e+001,
             8.2998351165974036e+003, 2.1211950271417763e+002,
             -4.0878679701040937e+001, 4.2976408378590029e+004,
             1.8059955803008445e+003, 3.2924428607796667e+003,
             6.3962610570411653e+002, -1.0653731965967687e+001,
             -1.0648350200447274e+001, 1.8059955803008445e+003,
             1.5063793950457080e+002, 2.6572821085775394e+002,
             1.1357689115514788e+003, -1.6888275530023762e+001,
             -1.7878301721581842e+001, 3.2924428607796667e+003,
             2.6572821085775394e+002, 4.7099132161793011e+002 ]
      - !!opencv-matrix
         rows: 6
         cols: 6
         dt: d
         data: [ 2.5723036693021083e+002, -3.3016771621101547e+001,
             -1.1474915454135743e+001, 1.9090447745285701e+001,
             7.9313173578814215e+001, 1.2270807199424131e+002,
             -3.3016771621101547e+001, 5.2826227576977196e+000,
             1.7268582099720577e+000, -1.1678772458978606e+000,
             -1.1089116057288102e+001, -1.7015311063406077e+001,
             -1.1474915454135743e+001, 1.7268582099720577e+000,
             6.8681695041723001e-001, -1.5409584340531743e-001,
             -3.7914916716485338e+000, -5.7018996377658429e+000,
             1.9090447745285701e+001, -1.1678772458978606e+000,
             -1.5409584340531743e-001, 4.0964543979364763e+001,
             5.1418546971069201e+000, 8.5281191647047994e+000,
             7.9313173578814215e+001, -1.1089116057288102e+001,
             -3.7914916716485338e+000, 5.1418546971069201e+000,
             2.5915114369486318e+001, 3.9986080011249300e+001,
             1.2270807199424131e+002, -1.7015311063406077e+001,
             -5.7018996377658429e+000, 8.5281191647047994e+000,
             3.9986080011249300e+001, 6.2087398118033875e+001 ]
   avg:
      - !!opencv-matrix
         rows: 1
         cols: 6
         dt: d
         data: [ 2.4782270143717022e-001, 4.0557531833474931e-003,
             1.6575659329122745e-003, 1.6234502287517758e+000,
             1.2383618132771339e-001, 2.0030832299702547e-001 ]
      - !!opencv-matrix
         rows: 1
         cols: 6
         dt: d
         data: [ 4.5106555021539474e-001, -6.2687320223148669e-003,
             -6.9199393468409118e-003, 1.3242492098823158e+000,
             1.0472216540763069e-001, 1.8564467196812634e-001 ]
      - !!opencv-matrix
         rows: 1
         cols: 6
         dt: d
         data: [ 3.8498570236192708e-001, -5.2269477339238458e-002,
             -1.7603000552393704e-002, 2.7839518360185653e-002,
             1.2376855288040362e-001, 1.9186493060360216e-001 ]
   inv_eigen_values:
      - !!opencv-matrix
         rows: 1
         cols: 6
         dt: d
         data: [ 4.4004151916452827e-001, 2.4945839551925104e+002,
             7.2688529516812275e+002, 2.2687244127484769e+003,
             1.4194073713669655e+004, 8388608. ]
      - !!opencv-matrix
         rows: 1
         cols: 6
         dt: d
         data: [ 7.1422826534192951e-001, 3.8690015562112097e+002,
             4.6384674885452487e+003, 1.8831988790038380e+004,
             4.0811608848767195e+004, 8388608. ]
      - !!opencv-matrix
         rows: 1
         cols: 6
         dt: d
         data: [ 4.2188256383806170e+001, 1.9355055795342602e+002,
             2.3890430467230444e+003, 1.0643762344238399e+004,
             2.2263641359078771e+004, 8388608. ]
   cov_rotate_mats:
      - !!opencv-matrix
         rows: 6
         cols: 6
         dt: d
         data: [ -2.1474799805679293e-002, 3.4440490332485758e-002,
             1.0178875146847049e-002, 9.9910801485946765e-001,
             -5.5419337339907768e-003, -1.2400458744594889e-003,
             -9.4740715929359409e-001, 2.3007566254987591e-001,
             -6.2635945141638949e-002, -2.6748244372508830e-002,
             1.2556809151429510e-001, 1.7052503691287635e-001,
             -1.5028791159178242e-001, -9.1489241423094370e-001,
             -2.7312567667817073e-001, 3.2397153004171828e-002,
             2.0070155078433480e-001, 1.5638762975739129e-001,
             2.5025122714456355e-001, 3.2953117841430168e-001,
             -7.0821426891314554e-001, 4.1557963193984684e-003,
             4.4663594205949342e-001, 3.5737255027620796e-001,
             6.8296664636128740e-002, -1.6069935288846746e-002,
             9.7388360990315267e-002, -9.2554363291988081e-004,
             -5.3904147041376571e-001, 8.3368235345733521e-001,
             -1.0991787859192545e-001, 1.3682628632981390e-003,
             -6.4056502407444060e-001, -5.7181482353111494e-005,
             -6.7369982730553135e-001, -3.5174021261987432e-001 ]
      - !!opencv-matrix
         rows: 6
         cols: 6
         dt: d
         data: [ 8.3143923465811339e-003, 1.7051527190415718e-002,
             4.4046656318310479e-003, 9.9979590539817786e-001,
             -4.4149462436169663e-003, -3.0612121384973189e-003,
             -9.8349312206971407e-001, 1.7139891001374977e-002,
             2.3527760666721174e-004, 8.7900208240505890e-003,
             1.0215188482747294e-001, 1.4810528546470647e-001,
             6.8108634986442920e-003, -9.6937005260207121e-001,
             -1.8231812136275577e-001, 1.8117868657987330e-002,
             1.5586661658404038e-001, 4.9119818295181431e-002,
             8.1196158209822858e-002, 2.4187586313814197e-001,
             -7.0006891708293939e-001, 1.3837540988934204e-003,
             6.6477048612320133e-001, 5.3712643405264313e-002,
             1.0883319643630579e-001, 3.5097324868227898e-002,
             -1.9071874640844355e-001, 8.4232850072257662e-004,
             -3.0181659115848164e-001, 9.2706844876368921e-001,
             -1.1911457133910212e-001, 1.1896610719286784e-003,
             -6.6352883681915986e-001, -4.0317897528265732e-005,
             -6.5744813072325370e-001, -3.3660323838848455e-001 ]
      - !!opencv-matrix
         rows: 6
         cols: 6
         dt: d
         data: [ 3.6501092638620010e-002, 3.3537461934655559e-002,
             1.6989356129022446e-002, 9.9839996676525822e-001,
             -1.7152493354142775e-002, -1.2552648977687427e-002,
             -9.7936786449610713e-001, -9.3292001151082798e-002,
             1.0590813952751672e-002, 4.2084949355135279e-002,
             8.0936795106653955e-002, 1.5395166582086309e-001,
             1.1709081610988012e-001, -8.7738344744574193e-001,
             -3.5048289151277856e-001, 3.7130864742208912e-002,
             2.9510157151139021e-001, 7.2014797526569668e-002,
             -9.5297629605461155e-003, -4.6696754032056531e-001,
             6.4441633363307527e-001, -6.1439639447239194e-003,
             -6.0135362880024190e-001, -7.0101024868461426e-002,
             1.1056965491623037e-001, 4.7960502301519950e-002,
             -1.7449003117698161e-001, 3.1438834562836776e-003,
             -3.3310981420153024e-001, 9.1872484364470230e-001,
             1.1610138690328188e-001, 3.3516894814394067e-003,
             6.5653770429560421e-001, 1.7317119276152144e-004,
             6.5839331290081471e-001, 3.4926450222466077e-001 ]
   c: !!opencv-matrix
      rows: 1
      cols: 3
      dt: d
      data: [ -4.4517112626921822e+001, -5.0466172541224303e+001,
          -5.2012153474780092e+001 ]
